sequential/dense/kernel:0
(784, 128)
[[-9.22345459e-01  7.51966298e-01 -1.08281696e+00 -1.47848094e+00
  -6.52916729e-01 -2.21651316e-01 -1.03779590e+00  5.29697120e-01
  -2.94874281e-01  4.63767439e-01 -1.03206003e+00 -4.74868119e-01
   1.52290750e+00 -1.03753066e+00  1.05867004e+00  4.05526757e-02
  -1.48260288e+01  1.03961742e+00  8.62023056e-01 -2.28841400e+00
  -7.04341269e+00  2.29929805e-01 -2.41500109e-01  4.49727058e-01
  -2.32032204e+00 -5.59080744e+00  3.04422319e-01 -1.12899704e+01
  -1.24720716e+00  2.42312178e-01  5.67956328e-01 -3.87833536e-01
  -2.23395443e+00  6.52464747e-01 -9.71920133e-01 -3.84115458e+00
   2.28074670e+00  1.45017159e+00 -1.07273257e+00 -7.55950630e-01
   5.22241183e-02  5.24900615e-01 -2.07984805e-01 -3.29096985e+00
  -5.13315558e-01 -9.44606006e-01  1.92404366e+00  1.02916956e+00
  -1.73244381e+00 -1.82219815e+00 -1.39165568e+00 -1.41187105e+01
  -1.00669527e+00  2.05540672e-01  2.26663858e-01 -6.85012043e-01
  -5.98602176e-01 -1.56655818e-01 -6.59570545e-02  8.74742031e-01
   2.97781765e-01 -1.96842480e+00  3.71350110e-01 -3.53273571e-01
   5.47454059e-01 -2.96852040e+00 -2.28030491e+00 -9.69247878e-01
   6.64836824e-01 -1.10327946e-02  1.40945637e+00 -1.34263945e+00
   3.58424395e-01  9.80186313e-02 -1.54240978e+00  2.25459766e+00
  -4.60269861e-02  5.91080010e-01  2.51397753e+00 -2.99239874e-01
  -2.53381014e-01  9.18553114e-01 -8.13265145e-01 -9.73397315e-01
   2.77621478e-01  4.18636873e-02  4.04746652e-01 -5.66941023e-01
   3.59043300e-01 -5.16647100e-01  8.21837112e-02  1.51647484e+00
  -1.70556521e+00  6.64959610e-01  8.65633488e-01  8.63748908e-01
  -2.90851500e-02 -7.73023963e-01  2.19000265e-01 -1.08832955e-01
   6.85776353e-01 -1.65347028e+00 -1.04661763e+00  2.31594658e+00
  -1.39537783e+01  8.46479893e-01  8.93978298e-01  8.32160950e-01
   3.70190628e-02  8.64660025e-01 -3.23585451e-01  1.46659449e-01
   2.23836899e-01 -5.10724774e-03 -2.72681296e-01  7.49372303e-01
  -1.43914711e+00  5.85002482e-01 -3.05417091e-01 -9.90265131e-01
  -5.08859575e-01 -1.84800982e+00  7.43225932e-01 -2.11806037e-02
  -3.65739048e-01 -7.78663233e-02 -4.12889624e+00 -3.05436462e-01]
 [ 1.76911056e-01  5.02822280e-01 -5.37576377e-01 -1.09242451e+00
  -1.72369629e-01  1.03114463e-01 -2.43047863e-01  2.36553773e-01
  -7.63228238e-01  2.56597668e-01 -2.44496942e-01 -3.81717861e-01
   7.33626008e-01 -2.92332858e-01  2.52621114e-01 -6.39086142e-02
  -1.47369833e+01  9.78813231e-01  5.04723668e-01 -1.76562369e+00
  -6.52009583e+00  8.09213594e-02  6.94242716e-02  2.82870919e-01
  -1.26209259e+00 -7.27371645e+00  1.61140218e-01 -1.02706919e+01
  -7.60397077e-01 -3.38115171e-02 -2.10304349e-03 -5.20484000e-02
  -2.60598803e+00  5.20780504e-01 -1.17738664e-01 -3.34024239e+00
   9.28255916e-01  5.24838567e-01  3.30854326e-01 -4.96746987e-01
   4.82624222e-04  1.42146453e-01  5.77192664e-01 -4.36605644e+00
  -2.42941409e-01 -8.32248807e-01  1.45311892e+00  7.51395762e-01
  -2.79179621e+00  1.01611530e-02 -1.19790649e+00 -1.31538897e+01
  -5.89192867e-01  4.73853461e-02 -9.08445239e-01  3.38885128e-01
  -4.72613499e-02 -2.02442314e-02 -7.67438173e-01  1.91176414e-01
   7.16636658e-01 -5.80645800e-01  1.97452992e-01 -1.65026680e-01
   7.54526079e-01 -3.18695903e+00 -1.37250137e+00 -6.89128399e-01
   7.58051395e-01 -1.12274187e-02  6.93083942e-01 -1.82082057e+00
   1.12791806e-01  1.63313001e-01 -2.19345808e+00  9.91738558e-01
   2.78427973e-02  2.21433342e-01  1.37306058e+00  1.33549944e-02
  -7.34472498e-02  2.08088055e-01 -1.80199802e-01 -1.15404618e+00
   1.72153816e-01 -8.79134461e-02  1.06070571e-01 -4.40790862e-01
   1.45186797e-01 -6.00361049e-01 -1.31596342e-01  9.44967151e-01
  -4.57197040e-01  6.64205611e-01  6.41907752e-01  4.96631682e-01
  -1.86390042e-01 -3.40381116e-01 -1.33698493e-01 -1.22089006e-01
   3.58879507e-01 -1.13805950e+00 -7.72831857e-01  8.80438983e-01
  -1.38522854e+01  6.86035156e-01  4.55866843e-01  5.54339290e-01
  -2.27153730e-02  3.86028439e-01  1.03994340e-01  1.38205081e-01
   2.81017005e-01  5.49942721e-03  5.48322618e-01  9.87068415e-01
  -2.82256365e-01  5.80574751e-01 -1.77046254e-01 -3.00962389e-01
  -1.74956426e-01 -8.65469456e-01  3.06645066e-01 -5.42215034e-02
  -2.79332548e-01  2.49613374e-01 -1.82069361e+00  1.57091096e-02]
 [ 4.41276014e-01  7.60945022e-01 -5.46738863e-01 -9.23490286e-01
  -5.36828190e-02  2.24158525e-01 -1.65841267e-01  1.18460022e-01
  -1.59273601e+00  3.54620129e-01  2.34724537e-01 -4.42650735e-01
   8.27268600e-01 -6.78408623e-01 -3.94519866e-02 -6.53318083e-03
  -1.56907301e+01  1.08755374e+00  4.78840321e-01 -2.32000637e+00
  -1.71277070e+00  5.40093556e-02  1.15594871e-01  2.10161433e-01
  -3.33110541e-02 -7.63960218e+00 -2.34221499e-02 -7.75124359e+00
  -5.47432840e-01  3.27927917e-01  8.31131414e-02  6.09022737e-01
  -1.54462028e+00  5.93351603e-01 -1.25240022e-02 -3.30781221e+00
   1.14173412e+00  5.90853274e-01 -5.43840555e-03 -3.31748694e-01
  -3.04775834e-02  1.22493602e-01  6.62264764e-01 -5.30624676e+00
   1.38561293e-01 -7.07486153e-01  1.13722086e+00  8.39529097e-01
  -3.78336000e+00  4.80073035e-01 -7.97891617e-01 -1.10014629e+01
  -9.51474905e-01  2.83884630e-02 -1.59000719e+00  6.41793370e-01
   2.79636890e-01 -3.48072231e-01 -8.00878882e-01  3.13638419e-01
   6.87291086e-01  4.37483430e-01  2.77192354e-01  1.52109489e-01
   8.69699895e-01 -3.93407536e+00 -1.05672419e+00 -4.42274302e-01
   6.32621109e-01  1.11938557e-02  1.61900356e-01 -1.73979199e+00
   3.80709358e-02  1.61558568e-01 -3.70660496e+00  5.48744559e-01
   7.47373626e-02  3.56292307e-01  8.97590935e-01  1.61524117e-01
   1.33726001e-01  5.01813471e-01 -8.57994109e-02 -6.24047816e-01
   1.64809927e-01 -3.63103151e-01  2.36319806e-02 -4.43153054e-01
   2.38707229e-01 -5.41654050e-01 -1.70137644e-01  7.88319349e-01
   6.30300120e-02  5.17884970e-01  8.21439147e-01  5.04611552e-01
  -2.97936704e-02 -4.52059925e-01  4.92435182e-04 -9.23853368e-02
   3.61791253e-01 -8.69729102e-01 -7.23314404e-01  2.78902322e-01
  -1.37451410e+01  8.31430614e-01  3.78286213e-01  6.46058142e-01
   3.02706324e-02  4.33224261e-01  2.78437763e-01  5.21240868e-02
   3.75690341e-01 -2.88539901e-02  2.42222324e-01  5.65738678e-01
   1.13612860e-02  4.71915513e-01  2.42458284e-02  4.03740145e-02
   2.05562070e-01 -4.96800065e-01  3.81956875e-01 -2.01956779e-02
  -1.76389977e-01  2.10443437e-01 -1.12520552e+00  8.91296640e-02]
 [ 6.98007405e-01  7.49230981e-01  6.72840700e-02 -7.63259828e-01
  -1.51340412e-02  2.19876230e-01  2.05463931e-01  2.51760334e-01
  -2.63980889e+00  1.89628363e-01  2.19871134e-01 -1.89024180e-01
   8.11788619e-01 -5.39887488e-01 -3.21334273e-01  1.55533217e-02
  -1.58844528e+01  1.16812444e+00  5.57909727e-01 -2.48961163e+00
  -2.89261371e-01 -4.52580862e-02  2.51174420e-01  4.82601464e-01
   1.02494395e+00 -4.12384033e+00 -2.74985403e-01 -3.33865905e+00
  -3.64342004e-01  1.83532149e-01 -6.18018508e-02  6.91728473e-01
  -8.68652165e-01  4.73517299e-01 -6.86703101e-02 -4.12003756e+00
   1.56746316e+00  3.36342156e-01 -9.89492312e-02 -1.09796286e-01
   6.28224984e-02  1.96890146e-01  8.27505410e-01 -3.89505100e+00
   4.30472642e-02 -2.52439529e-01  1.03442764e+00  6.64793074e-01
  -4.77369976e+00  3.53260547e-01 -5.99358141e-01 -3.45256639e+00
  -9.80363846e-01 -1.62144363e-01 -1.73983395e+00  4.09134567e-01
   4.58419949e-01 -3.28087807e-01 -1.23660648e+00  3.46331984e-01
   6.00571930e-01  1.44272065e+00  1.44039676e-01  4.14733440e-01
   7.00589180e-01 -4.95328331e+00 -3.46911341e-01 -5.13586938e-01
   5.27017236e-01  4.14669812e-02  2.30924517e-01 -2.52419138e+00
  -4.01470251e-02  9.58488062e-02 -6.07240105e+00 -5.98893583e-01
   6.03433140e-03  2.80699372e-01 -5.81257939e-01 -2.15186048e-02
   3.21581736e-02  6.40744686e-01 -3.81575853e-01 -5.42530417e-01
   2.49707565e-01 -2.53993034e-01  3.83963399e-02 -3.33912551e-01
   4.46060181e-01 -3.57537299e-01 -3.38395447e-01  2.85352588e-01
   6.09214246e-01  4.10721928e-01  2.67722040e-01  2.29892820e-01
   2.80860126e-01 -5.13342857e-01 -3.83055322e-02 -9.86832678e-02
   4.49280947e-01 -9.72573280e-01 -6.72160685e-01 -5.88740446e-02
  -1.32312088e+01  9.97976363e-01  2.91719407e-01  5.43133259e-01
  -4.24829051e-02  3.67173791e-01  2.08062977e-01  2.21338838e-01
   3.25738668e-01  4.10620645e-02  2.07273409e-01 -2.01202899e-01
   3.49956244e-01  2.14218006e-01  1.40698344e-01  1.24131814e-02
   8.76471475e-02 -7.98313618e-02  6.70145631e-01  1.95644423e-02
  -1.40339464e-01  2.88863301e-01 -5.54456055e-01  4.79744077e-02]
 [ 7.79678822e-01  4.60754097e-01  6.81438029e-01 -8.68739665e-01
  -1.75838154e-02  2.95946211e-01 -6.38544112e-02  1.40419409e-01
  -3.67044997e+00  9.83008370e-02  2.09885865e-01 -1.33583501e-01
   8.54135215e-01 -2.40237102e-01 -4.63769346e-01  5.71392663e-02
  -1.61127281e+01  1.17119706e+00  4.67044771e-01 -2.20832396e+00
  -1.91651061e-01 -8.80857371e-03  3.38191360e-01  6.05015099e-01
   2.20391107e+00 -1.86164212e+00 -3.41744095e-01 -1.95886695e+00
  -2.75918096e-01  5.52630387e-02  3.29977363e-01  9.22332942e-01
  -3.46037954e-01  4.41320032e-01 -4.51500230e-02 -2.96360660e+00
   1.74347019e+00  3.98843676e-01 -1.17905110e-01  2.10688770e-01
  -4.99646999e-02 -8.05798993e-02  9.57401574e-01 -1.41406095e+00
  -3.59904058e-02 -2.98479676e-01  3.01384926e-01  6.77221060e-01
  -5.30900002e+00  1.43312678e-01 -3.27358127e-01 -9.36433077e-01
  -9.92524326e-01 -5.74987903e-02 -1.49855649e+00  2.83359736e-01
   4.48555201e-01 -1.22823030e-01 -1.41072404e+00  3.53501707e-01
   4.35520887e-01  1.70247829e+00  2.36183792e-01  2.62549937e-01
   7.76933253e-01 -5.34447622e+00  7.80189037e-02 -7.83893645e-01
   4.06980664e-01  4.69414331e-02  2.86045551e-01 -2.34097314e+00
  -9.83093400e-04  4.85642254e-02 -8.11349010e+00 -9.84063685e-01
   3.45862620e-02  1.62624225e-01 -2.10085940e+00 -2.10992768e-01
  -6.31575212e-02  2.53416538e-01 -3.49258661e-01 -1.45521176e+00
   2.02327728e-01  1.76570877e-01  1.00825364e-02 -1.27761826e-01
   2.49688551e-01 -9.42266285e-02  1.96088031e-02 -9.10886884e-01
   8.29943717e-01  6.16548419e-01 -3.82184416e-01  3.07075948e-01
   1.62697434e-01 -3.76285911e-01 -8.00134148e-03 -2.16601282e-01
   3.31122190e-01 -1.19519413e+00 -6.77324295e-01 -2.63078660e-01
  -1.27989712e+01  4.63452786e-01  2.82199204e-01  5.90334535e-01
   2.51689199e-02  6.58917904e-01  1.38591364e-01  1.01338230e-01
   7.61663094e-02 -6.37922287e-02  3.97445768e-01 -1.87837696e+00
   6.32961392e-01  2.51261652e-01  6.62596896e-02  1.80709604e-02
  -1.30038723e-01  2.95517772e-01  6.13512158e-01  1.57435715e-01
  -4.48471941e-02  5.78109384e-01 -3.85066122e-01  1.56500861e-01]
 [ 6.71815395e-01  4.25469190e-01  1.35402405e+00 -4.10540849e-01
  -3.60386893e-02  6.07753731e-02 -3.86745185e-01  2.61160612e-01
  -5.45848608e+00  1.25008523e-01  4.86825854e-01 -1.68376848e-01
   5.85408151e-01 -1.98446721e-01 -6.93711519e-01 -6.13312311e-02
  -1.43456755e+01  1.03109705e+00  4.57927734e-01 -1.75402606e+00
   1.76755875e-01 -1.68313071e-01  4.78170931e-01  4.67397034e-01
   2.66790891e+00 -5.72471559e-01 -4.03824985e-01 -8.87228668e-01
   2.01336183e-02  1.75709307e-01  2.42955998e-01  1.22248912e+00
  -3.80029529e-02  2.31892884e-01 -3.10873955e-01 -4.68142509e+00
   1.97189200e+00  7.29989111e-01 -7.36396909e-02  1.74781933e-01
  -5.99675216e-02 -1.23669859e-03  7.79013872e-01 -8.03663373e-01
   6.00687824e-02 -6.10022366e-01 -9.77305055e-01  7.49447882e-01
  -5.55893469e+00  6.02035820e-02 -2.04191700e-01 -5.21420181e-01
  -1.04906702e+00  2.07348853e-01 -6.07353687e-01  1.09654851e-01
   3.49369049e-01  2.29954824e-01 -2.13171911e+00  4.95740995e-02
   1.85165733e-01  1.08391261e+00  3.92347962e-01  1.99310824e-01
   7.36612380e-01 -4.80266619e+00 -1.07696481e-01 -5.93336403e-01
   3.92487228e-01 -7.66140670e-02  1.61911640e-02 -2.77416062e+00
   1.64554920e-02  8.75851065e-02 -9.59389114e+00 -1.26914907e+00
   6.30877838e-02  2.76285172e-01 -3.94481087e+00 -3.54771286e-01
   5.20041697e-02  2.34278753e-01 -2.07076073e-01 -1.78627956e+00
   3.39474589e-01  2.13708550e-01 -1.16531365e-01 -1.23321421e-01
   9.04864967e-02  8.51150751e-02 -5.15696853e-02 -2.31354237e+00
   8.05603802e-01  6.94108307e-01 -8.83653998e-01  9.46008340e-02
   1.23680085e-01 -1.10297002e-01 -2.54074717e-03 -4.64306548e-02
  -7.21634552e-02 -2.39083314e+00 -5.33767819e-01 -3.40985328e-01
  -1.18691158e+01 -5.04469872e-02  2.46259525e-01  6.27803445e-01
   4.87316810e-02  6.68567002e-01  1.20944791e-01  2.28555426e-01
  -5.42231724e-02  4.29943837e-02  3.96484621e-02 -2.87706542e+00
   3.59409630e-01  3.01537454e-01  6.46468103e-02 -8.39062333e-02
  -1.13139279e-01  2.09493354e-01  3.43373656e-01  9.11536068e-02
  -1.37957230e-01  4.28187102e-01 -1.33222342e-01 -4.88306880e-02]
 [ 6.82804167e-01  5.75027406e-01  1.23982394e+00 -1.60928771e-01
  -3.19689959e-02  1.64017871e-01 -6.67600036e-01  3.01671565e-01
  -6.14248323e+00  1.09220296e-01  3.59053940e-01 -8.43951199e-03
  -7.90099278e-02 -1.86187819e-01 -4.54332680e-01 -5.54230474e-02
  -8.26673603e+00  7.88117409e-01  5.11836886e-01 -1.57502389e+00
   1.58097178e-01 -6.41157106e-02  3.83784443e-01  2.60082155e-01
   2.95843077e+00 -4.93564270e-03 -3.94831479e-01 -3.74857664e-01
  -1.45252496e-01  1.50388032e-01  3.34720433e-01  6.38571918e-01
  -6.22201264e-02  2.40278617e-01 -4.60891247e-01 -5.62445736e+00
   2.13015175e+00  6.38835788e-01  1.04715042e-01  1.11569308e-01
  -1.21665969e-02 -1.17011756e-01  4.40895975e-01 -1.28451854e-01
  -8.44984502e-02 -4.73729193e-01 -2.41307139e+00  7.16752529e-01
  -7.03532219e+00  1.25580072e-01 -3.16738009e-01 -8.23530182e-02
  -8.28294277e-01  2.11658757e-02 -1.39160231e-01  9.91935208e-02
   4.82094377e-01 -1.39001161e-01 -2.80203485e+00  1.62577122e-01
   1.85315967e-01  2.81516075e-01  3.39089632e-01 -2.18739748e-01
   5.54964662e-01 -3.57159710e+00  2.73753792e-01 -8.72039497e-01
   1.58139080e-01 -3.95433716e-02 -3.55742604e-01 -1.82639301e+00
   7.16054961e-02 -6.97371690e-03 -1.06315832e+01 -1.81805193e+00
   1.03753647e-02  1.61944076e-01 -7.24811459e+00 -2.16289669e-01
  -3.73426788e-02  1.73844621e-01 -3.93102825e-01 -2.26643968e+00
   2.29904830e-01  2.60294020e-01 -7.72441626e-02 -2.06404105e-01
   4.70132604e-02  2.24433333e-01 -6.08252187e-04 -3.44914412e+00
   9.15141582e-01  3.68868917e-01 -7.06985772e-01  2.49274895e-01
   6.25286847e-02  1.20853133e-01  1.05904363e-01  9.79957283e-02
  -1.93388492e-01 -3.53654957e+00 -6.73587680e-01 -1.01205432e+00
  -8.80327988e+00 -6.41767323e-01  2.82642573e-01  4.98558760e-01
  -6.36437461e-02  6.16550446e-01  1.72899693e-01  4.41566557e-01
  -7.71221742e-02 -3.78783122e-02  5.29312789e-02 -2.84357214e+00
   2.35848203e-01  6.82745576e-02  5.92850782e-02 -2.45452777e-01
  -1.20226825e-02  1.76398288e-02  3.15138310e-01  2.46535301e-01
  -1.00871392e-01  3.71719569e-01 -3.27817142e-01  1.45375505e-01]
 [ 4.22566921e-01  3.83169949e-01  7.47052968e-01  1.25610679e-01
   3.17196408e-03  3.25915813e-01 -7.91487634e-01  2.04491287e-01
  -4.94390202e+00  2.60582324e-02 -7.36875460e-03 -6.56922534e-02
  -5.15525639e-01 -1.53341994e-01 -1.75290778e-01  9.53291543e-03
  -3.51014781e+00  4.25816298e-01  7.67215550e-01 -1.37989044e+00
   1.21335618e-01 -2.72915840e-01  3.31654191e-01  1.32089600e-01
   2.41502810e+00  6.32405698e-01 -1.59288213e-01  1.08196050e-01
  -7.88559765e-02  1.11947641e-01  3.09494615e-01 -3.91562760e-01
   1.22332059e-01  5.34495972e-02 -5.76906204e-01 -6.19658041e+00
   2.13304257e+00  4.41284508e-01  2.82638334e-02  1.33274809e-01
  -7.75320455e-02  2.11721584e-01  3.37387830e-01  4.63726372e-02
  -4.88155670e-02 -4.79252011e-01 -3.20124292e+00  9.21526015e-01
  -9.37164879e+00  2.23374993e-01 -9.29031745e-02 -3.00347120e-01
  -8.79746199e-01 -1.91923723e-01  8.70706961e-02  3.53648998e-02
   4.62199420e-01 -2.44246736e-01 -3.40037847e+00 -1.03433728e-01
   2.09846970e-04 -3.61141384e-01 -1.91495158e-02 -4.17715877e-01
   4.70489860e-01 -3.28143024e+00 -7.06519261e-02 -8.39762330e-01
   2.83209741e-01 -6.69146776e-02 -4.21091795e-01 -1.15479112e+00
  -3.53241861e-02 -9.49426070e-02 -1.03699789e+01 -2.89168620e+00
  -8.28610882e-02  2.21396741e-02 -7.06878281e+00 -1.28533542e-01
   9.74773318e-02  7.39743859e-02 -5.30556023e-01 -2.65865827e+00
   3.47331524e-01  3.46853018e-01  2.63749994e-02  1.98601842e-01
   1.42458528e-01  1.99740082e-01  1.68167695e-01 -4.70717192e+00
   7.41308212e-01  5.82195580e-01 -1.14734209e+00  2.52689689e-01
   1.49320260e-01 -2.70224996e-02  1.84407011e-01  4.09660250e-01
   5.09130731e-02 -2.25514317e+00 -5.55049658e-01 -8.53022397e-01
  -5.09996462e+00 -1.29635227e+00  3.36776376e-01  2.63646483e-01
  -2.75924243e-02  6.47617579e-01  4.25321579e-01  4.93146211e-01
   4.10649814e-02 -1.94029529e-02 -1.02393620e-01 -2.81658840e+00
   3.67948204e-01 -2.93328226e-01  2.16859635e-02 -6.64424747e-02
   1.62459508e-01 -2.09341928e-01  3.95293653e-01  2.30769545e-01
  -2.28964508e-01  2.56016433e-01 -1.54101416e-01  3.36187869e-01]
 [ 2.77865857e-01  2.33552426e-01  7.62411058e-01 -1.12762794e-01
   6.78905472e-02  2.15653419e-01 -8.99441898e-01  6.00577937e-03
  -5.28463840e+00  8.12426135e-02  7.44932219e-02 -1.86528251e-01
  -7.91279733e-01 -4.32934999e-01 -1.83397800e-01 -5.16721979e-02
  -2.16739702e+00 -4.30586845e-01  8.19794834e-01 -8.40715945e-01
   9.90271866e-02 -5.28312437e-02  4.06198621e-01  1.89260572e-01
   2.00679421e+00  7.71735430e-01 -1.17850579e-01  7.29420424e-01
  -1.07058220e-01  5.80930263e-02  2.82487869e-01 -1.82602036e+00
   4.17283438e-02  1.36873007e-01 -3.41032296e-01 -6.83721352e+00
   2.31746459e+00  2.13626251e-01  2.02795431e-01  5.55694327e-02
   1.29877394e-02  2.82209460e-02  3.70503515e-01 -8.58324915e-02
  -1.14794508e-01 -1.47253752e-01 -2.76013851e+00  8.03215504e-01
  -1.14730949e+01  4.72515345e-01 -5.55316247e-02 -3.21329623e-01
  -9.32210445e-01 -1.21440493e-01  3.82332832e-01  1.42323285e-01
   1.45622030e-01  6.74541891e-02 -4.03391027e+00 -1.56075463e-01
   1.96159229e-01 -1.41517961e+00 -3.07179540e-01 -5.84040523e-01
   6.74797833e-01 -3.23727131e+00 -2.14274973e-01 -5.56794524e-01
   1.69973671e-01 -2.64026430e-02 -2.57957637e-01 -9.01050091e-01
  -5.14650270e-02  8.79256949e-02 -8.79720116e+00 -4.18443060e+00
   7.57036265e-03  8.35608095e-02 -3.66828895e+00 -2.18987688e-02
  -7.32565075e-02 -1.62477612e-01 -3.57859284e-01 -2.92540503e+00
   4.07315642e-01  4.49553519e-01  6.68487847e-02  2.54887082e-02
  -3.30680907e-02  1.41566277e-01  1.46899641e-01 -5.73187351e+00
   9.52168882e-01 -6.19769335e-01 -8.11567783e-01  8.99422020e-02
   2.96957970e-01 -7.98701942e-02  3.19575548e-01  3.02238435e-01
  -2.19278693e-01 -8.56304884e-01 -4.12856519e-01 -2.29878592e+00
  -2.19838762e+00 -7.76569903e-01  1.88096911e-01  2.96910971e-01
  -4.89540882e-02  3.76423806e-01  3.36138815e-01  3.39616954e-01
  -1.01275302e-01  4.45176698e-02 -1.95657983e-01 -2.42632365e+00
   2.50858277e-01 -2.39938334e-01  8.27651024e-02 -1.41352668e-01
  -6.78017735e-02  4.54595506e-01  2.25688189e-01  4.13349152e-01
  -6.56711534e-02  1.63988411e-01 -2.58586615e-01 -3.71280313e-02]
 [ 3.40278804e-01  2.63665468e-01  7.11090922e-01  1.74462140e-01
   3.17926258e-01  2.82088429e-01 -1.63815570e+00  3.00719179e-02
  -6.14597368e+00 -5.45745641e-02  1.60183474e-01 -7.48188868e-02
  -1.07844698e+00 -8.89545605e-02  1.52631044e-01  6.14504330e-02
  -1.68277776e+00 -1.57984257e+00  7.38948762e-01 -9.90595222e-01
   4.08922508e-02 -1.63642347e-01  3.33207488e-01  1.18925944e-01
   1.77860332e+00  4.61522698e-01 -1.08882271e-01  9.70996976e-01
  -7.91785300e-01 -2.76493677e-03  3.26239407e-01 -4.47205448e+00
  -2.13136837e-01 -1.36802881e-03 -3.85330528e-01 -7.08552694e+00
   2.14010549e+00 -2.56563604e-01  9.20387879e-02 -4.07790132e-02
   2.25225501e-02 -6.06928430e-02  3.08326662e-01  8.81512277e-03
  -5.01776524e-02 -2.27803782e-01 -1.33048153e+00  6.88011885e-01
  -1.11054401e+01  4.77082700e-01  2.80270755e-01 -2.81788260e-01
  -6.85019374e-01 -2.28082120e-01  7.51358807e-01  1.79261684e-01
  -3.58601421e-01  2.26813182e-02 -4.16682005e+00 -8.31639841e-02
   1.20983854e-01 -1.33196044e+00 -1.43660203e-01 -6.16313159e-01
   1.40270576e-01 -2.07606936e+00 -6.22811466e-02 -4.85122979e-01
   1.56078413e-01  5.64725548e-02 -2.45787859e-01 -5.36858439e-01
  -1.87517647e-02  1.27296045e-01 -6.42703581e+00 -4.83030987e+00
   4.15424779e-02  2.61328798e-02 -1.59650064e+00 -5.94342723e-02
  -1.30065024e-01 -3.21117602e-02 -8.38527605e-02 -2.87022352e+00
   3.85307163e-01  6.25158250e-01  3.16167951e-01  2.65037000e-01
   5.11258543e-02  1.18781574e-01  5.59449233e-02 -6.32028389e+00
   7.66568482e-01 -4.36096117e-02 -8.55691016e-01  3.68871726e-02
   1.38172567e-01 -9.12854820e-02 -5.23172803e-02  1.73564300e-01
  -6.17189884e-01  2.45937333e-02 -4.63675886e-01 -3.97599912e+00
  -3.47855091e-01 -2.45125040e-01  2.12708533e-01  2.90273935e-01
   7.40946329e-04  4.21547860e-01  8.82926062e-02 -7.54044876e-02
  -1.79569140e-01  6.18583476e-03 -1.78557664e-01 -2.12061381e+00
   4.02233034e-01 -1.68389187e-03  1.08095117e-01  9.19795483e-02
  -1.37485519e-01  7.90946662e-01  1.52050659e-01  1.06591836e-01
   9.36560184e-02  2.92695612e-01 -1.99314237e-01  7.85028934e-02]
 [ 2.17697248e-01  2.90018469e-01  2.33435318e-01  2.76301444e-01
   2.25813165e-01  3.91347021e-01 -2.88375926e+00  5.04005440e-02
  -9.26294708e+00 -4.61095348e-02  2.96037793e-01  7.55442902e-02
  -1.28834808e+00  2.85496563e-01  6.24780178e-01  3.73201929e-02
  -1.61754382e+00 -2.39472795e+00  7.74046123e-01 -9.19230342e-01
  -9.64048877e-02 -1.72530830e-01  5.06968617e-01  1.93949968e-01
   1.49557614e+00 -1.04272768e-01 -1.05633978e-02  8.26258063e-01
  -9.04564619e-01 -5.34101985e-02  2.82189935e-01 -5.80660486e+00
  -3.87384295e-02  2.95433346e-02 -5.03801048e-01 -7.61653137e+00
   2.34454370e+00 -7.66848445e-01  2.31624931e-01 -9.11803842e-02
  -2.18409523e-02 -1.58342302e-01 -2.07280610e-02  7.84772038e-02
   2.54015237e-01 -4.12102878e-01 -4.22388941e-01  4.54239279e-01
  -1.16657152e+01  3.25462371e-01  2.89583266e-01 -2.04903722e-01
  -3.45369875e-01 -1.44658849e-01  6.50374234e-01  1.87016383e-01
  -6.75518215e-01 -1.08948179e-01 -4.69714880e+00 -3.32573295e-01
   1.26138568e-01 -1.27381086e+00  2.85587218e-02 -3.75011861e-01
  -1.49070233e-01 -9.32975173e-01 -3.79562229e-02 -3.32271814e-01
   3.68887365e-01 -6.63435608e-02  3.13327983e-02 -2.67787248e-01
  -8.28208774e-02  2.61906892e-01 -4.38534307e+00 -3.84090710e+00
   4.53063324e-02  2.40055397e-02 -4.83253568e-01 -7.45816082e-02
  -2.30213284e-01 -4.01307940e-02  1.38294533e-01 -2.39318800e+00
   4.45849657e-01  6.40982866e-01  5.27202964e-01  2.16965213e-01
   7.95146376e-02  4.76975411e-01 -3.71958405e-01 -5.91802406e+00
   4.77121800e-01 -2.81008005e-01 -1.11326635e+00 -2.39642849e-03
   3.89630422e-02 -7.67057687e-02 -1.91707060e-01  9.31131989e-02
  -1.30904472e+00  1.04669201e+00 -2.83319354e-01 -5.02289629e+00
   1.18107330e-02  2.36466438e-01  8.87795836e-02  2.08512723e-01
  -1.87110920e-02  4.09793437e-01  2.14638771e-03  1.05648004e-01
  -3.62673908e-01  1.75908227e-02  4.68036495e-02 -2.62269402e+00
   5.11533320e-01 -1.82831258e-01 -2.28421107e-01  3.53629351e-01
  -2.70644039e-01  1.37964046e+00  8.67824554e-02  1.45172238e-01
   9.45225060e-02  1.82619825e-01 -8.20375532e-02  1.23342417e-01]
 [ 4.46607500e-01  4.04395938e-01 -3.91007692e-01 -1.91552207e-01
   2.11535782e-01  3.39248836e-01 -3.54103446e+00  4.65219207e-02
  -1.04077187e+01 -1.38553217e-01  7.07343370e-02  3.63335907e-02
  -2.39604831e+00  2.19911307e-01  6.26775563e-01  5.53310737e-02
  -1.29086614e+00 -3.57234836e+00  7.86020696e-01 -8.76264989e-01
  -3.57135199e-02 -1.18163861e-01  7.13110149e-01 -9.29687470e-02
   1.18421078e+00 -2.31123850e-01 -5.17210960e-02  5.90710223e-01
  -1.33950889e+00 -8.26020911e-02  2.05941066e-01 -5.56888437e+00
  -8.01169593e-03 -5.13211548e-01 -7.73377359e-01 -8.01532555e+00
   2.54241562e+00 -7.75243342e-01  3.27560663e-01 -1.41075984e-01
  -4.57264818e-02 -2.69480109e-01 -9.72518399e-02 -5.49484007e-02
   2.07941592e-01 -1.48733690e-01  1.02651671e-01  3.52775186e-01
  -1.14306269e+01  3.29787701e-01  2.85975099e-01 -1.07184723e-02
  -3.73333693e-01 -6.86290935e-02  5.19092560e-01  2.74330109e-01
  -9.87935781e-01 -1.72391891e-01 -4.99050856e+00 -4.85235780e-01
   2.32045680e-01 -6.60997272e-01  1.34900019e-01 -2.99038768e-01
  -1.90797016e-01 -3.42140913e-01 -7.59653226e-02  2.89478719e-01
   4.85306591e-01 -3.98184732e-02  1.80079564e-01 -1.82949871e-01
   2.58027852e-01  1.41497552e-01 -3.31626415e+00 -2.69380403e+00
  -3.98424566e-02 -1.60523411e-02  3.46920073e-01 -9.01979506e-02
  -2.82504886e-01  1.84463084e-01  3.35834086e-01 -1.29206371e+00
   4.61241275e-01  4.37315673e-01  4.75829542e-01  2.58655846e-01
   1.24412142e-01  3.12637448e-01 -1.50463849e-01 -5.86239481e+00
   3.28872234e-01 -8.23003352e-01 -9.86154139e-01 -3.38633060e-02
   1.90494478e-01  5.07380925e-02 -2.13322788e-02 -5.05201295e-02
  -1.97640932e+00  1.33096540e+00 -2.37423494e-01 -5.45016146e+00
  -2.42099562e-03 -4.36108112e-01  5.12804613e-02  1.23602375e-01
   3.80469412e-02  1.72356859e-01  7.17727467e-02  1.83943212e-01
  -3.08078319e-01  2.59285327e-02 -1.08252920e-01 -2.15815473e+00
   5.88078856e-01 -1.28465280e-01 -3.28797042e-01  3.25406432e-01
  -3.97756010e-01  1.33653200e+00  3.88532072e-01  2.61300594e-01
  -5.11397533e-02  1.43844873e-01 -1.50158137e-01  1.22830607e-01]
 [ 3.02152127e-01  4.21876669e-01 -5.47489941e-01 -3.65440220e-01
   1.08561628e-01  2.98513293e-01 -3.08401394e+00  7.30500147e-02
  -1.19829550e+01 -2.38366559e-01  7.13152513e-02  9.13143307e-02
  -3.53819156e+00  2.52780527e-01  5.84466279e-01 -7.22607598e-02
  -1.10151434e+00 -4.25644588e+00  6.62261307e-01 -2.78190523e-01
   9.45986211e-02  1.63505509e-01  1.04165411e+00  1.69549167e-01
   1.17144907e+00 -3.47394198e-01 -6.56292364e-02  2.77922243e-01
  -2.30769849e+00 -5.53145632e-03  9.54475254e-02 -5.51117086e+00
   4.84973341e-02 -6.33425236e-01 -6.26737773e-01 -8.37647533e+00
   2.38786769e+00 -2.03971267e-01  3.53715837e-01 -1.49228618e-01
   7.68716028e-03 -2.32909516e-01 -1.36384249e-01 -7.28403553e-02
  -1.09197825e-01 -3.18871379e-01  2.16418892e-01  1.07734703e-01
  -1.17790270e+01  2.35795036e-01  2.87181765e-01 -2.80994866e-02
  -2.15376019e-01 -2.35422775e-01  3.78573209e-01  1.36923775e-01
  -1.22968161e+00  1.75435077e-02 -5.27864027e+00 -6.77118599e-01
   1.69157758e-01 -6.35714173e-01 -5.37434826e-03 -1.85059249e-01
   2.89526079e-02 -5.64558327e-01  1.50101602e-01  4.79419231e-01
   5.47086179e-01  5.30906394e-03  8.42692405e-02 -2.34643728e-01
   1.67852879e-01  1.30290776e-01 -2.51791668e+00 -1.70142114e+00
   3.07465848e-02 -5.55577315e-02  6.33823574e-01 -8.45217891e-03
   3.99851101e-03  2.09587023e-01  1.80781320e-01 -3.75889540e-01
   6.37550473e-01  3.14026296e-01  5.94699800e-01  2.13915899e-01
   1.53809696e-01  2.78478652e-01 -5.10048531e-02 -5.11977720e+00
   9.71386507e-02 -1.33480942e+00 -9.62293208e-01  6.47583306e-02
   2.34459057e-01 -5.37158623e-02  4.51889075e-03 -2.08798975e-01
  -1.96816444e+00  7.69351646e-02 -2.10633844e-01 -5.93835449e+00
   4.30656105e-01 -1.27948153e+00  1.45123154e-01  1.36162668e-01
   4.03735600e-03  9.37627777e-02  7.11079836e-02 -1.83816701e-01
  -5.92128299e-02 -5.51291257e-02 -2.13493071e-02 -1.51296151e+00
   5.68470657e-01  9.50946435e-02  4.29604538e-02  3.62537950e-01
  -1.20156154e-01  9.19871747e-01  2.09582403e-01  4.10947800e-01
  -4.46414351e-02  1.23416461e-01 -4.48347256e-02  2.08180785e-01]
 [ 1.67110652e-01  6.22493446e-01 -1.44178188e+00 -3.63046467e-01
   4.52340618e-02  4.83273417e-01 -2.70961404e+00  1.80060282e-01
  -1.27795401e+01 -1.80462688e-01  5.78431301e-02  2.76983660e-02
  -4.01795959e+00  8.60773325e-02  4.80985075e-01 -3.78473848e-02
  -1.01362872e+00 -3.34469509e+00  5.28683901e-01 -3.84645574e-02
   1.64394498e-01  1.08062267e-01  9.74065721e-01  2.21237823e-01
   8.81897926e-01 -1.97722435e-01 -1.12180270e-01  1.96306601e-01
  -2.80240512e+00 -7.06420690e-02  1.05637386e-01 -5.43819189e+00
   1.65636644e-01 -1.13904178e+00 -6.68782055e-01 -7.78333187e+00
   2.27094269e+00 -7.70557761e-01  4.29959655e-01  3.30588706e-02
  -8.09816718e-02 -3.05185050e-01 -1.54345706e-01 -2.34430939e-01
   9.32981074e-02 -6.48799956e-01  2.95856953e-01  6.00585602e-02
  -1.25377111e+01  1.69589356e-01  3.35078359e-01  1.81668639e-01
  -1.18263848e-02 -4.52233344e-01  3.68190348e-01  4.69129622e-01
  -1.45350742e+00 -2.54633036e-02 -5.39522600e+00 -7.27898419e-01
   6.88429177e-02 -7.97009587e-01 -6.19214252e-02  2.05913335e-01
  -2.20093876e-01 -3.25654954e-01  2.63498306e-01  6.78227186e-01
   4.16320652e-01  4.72692288e-02  1.49751320e-01  5.08763008e-02
   1.74217492e-01  1.37251958e-01 -1.40975106e+00 -1.22788465e+00
  -8.42435434e-02  3.01220790e-02  6.57856405e-01 -8.91863257e-02
   1.73280388e-01  2.97393441e-01  3.38223204e-02 -3.43471058e-02
   7.33363628e-01  1.40041262e-01  6.01611614e-01 -1.48137048e-01
  -1.27987117e-01  2.02112377e-01  1.32270515e-01 -4.78737640e+00
   4.49588113e-02 -1.43785512e+00 -1.02614582e+00 -8.61502886e-02
   3.64662945e-01 -2.89819166e-02  2.41056263e-01 -1.34660408e-01
  -3.12899923e+00 -8.74121189e-01 -1.57976568e-01 -5.39111471e+00
   3.47281784e-01 -1.88643956e+00  2.40345761e-01  1.64950892e-01
  -1.94024984e-02  1.14368156e-01  2.99061593e-02 -3.48888755e-01
   2.64581949e-01 -9.83484462e-03  1.00632012e-01 -1.15022171e+00
   5.07388055e-01  6.30978584e-01  1.29929587e-01  5.58205187e-01
  -2.89237678e-01  1.05385733e+00  2.54587620e-01  3.29615653e-01
  -2.44606152e-01  1.69974297e-01  6.18662685e-03  2.16619909e-01]
 [ 9.14939493e-02  5.17105579e-01 -1.46563125e+00 -4.10437316e-01
   2.15563014e-01  4.43633437e-01 -2.09304094e+00  5.76652586e-03
  -1.25786486e+01 -9.33405459e-02  8.47116765e-03  4.01576544e-04
  -4.09017611e+00 -3.82591113e-02  4.58178103e-01  2.38850974e-02
  -1.09341133e+00 -2.14095306e+00  4.17073727e-01 -9.01900306e-02
   1.63236052e-01  6.05239049e-02  2.87664950e-01  3.58288676e-01
   6.39603436e-01  8.38273577e-03 -3.52991015e-01  4.42380607e-02
  -2.88439989e+00  8.49423744e-03 -1.25876248e-01 -5.66506958e+00
   8.48737955e-02 -1.67895436e+00 -7.67337024e-01 -7.93134785e+00
   2.21248722e+00 -2.16934538e+00  3.46338093e-01  3.38048078e-02
  -3.85338478e-02 -1.46649361e-01 -1.91159949e-01 -2.63251185e-01
   2.42258653e-01 -4.10496980e-01  1.77036718e-01  1.45565242e-01
  -1.28039217e+01  2.42507830e-01  4.95748878e-01  9.00837108e-02
   2.37281471e-01 -5.61086833e-01  2.11550489e-01  4.29383546e-01
  -1.47397518e+00 -2.29527339e-01 -4.76456499e+00 -6.99578345e-01
   1.23722114e-01 -9.91469324e-01 -1.52031556e-01  4.11354080e-02
  -5.26961565e-01 -4.61717129e-01  2.54361302e-01  3.64965200e-01
   6.30972087e-01 -3.86558585e-02  2.22187310e-01  6.34409860e-02
   1.62511647e-01  1.71277732e-01 -4.81492728e-01 -7.81378686e-01
  -4.13418608e-03 -7.50523061e-03  3.71746600e-01 -1.85218826e-01
   2.72146314e-01  3.80717397e-01 -1.31380305e-01  4.53415632e-01
   3.85283500e-01  1.70340583e-01  6.00424826e-01  4.74208407e-02
   1.84549689e-02  2.63241559e-01  2.33499363e-01 -4.98451853e+00
   1.66033525e-02 -1.81621814e+00 -1.07853186e+00 -2.99187094e-01
   2.95999527e-01  8.14138576e-02  3.13057095e-01 -1.08853251e-01
  -4.38923979e+00 -2.26050806e+00 -1.54355004e-01 -4.20747042e+00
   2.90520847e-01 -1.90797901e+00  4.31558967e-01  2.97170311e-01
  -1.60384923e-02  7.79516026e-02 -1.35271519e-01 -2.44081244e-01
   1.62088260e-01 -7.85874203e-02  5.02622537e-02 -1.83597207e+00
   3.84542763e-01  4.24047589e-01  2.53172845e-01  8.35920691e-01
  -1.24994583e-01  1.01776290e+00  4.07185078e-01  2.33213857e-01
  -4.60885257e-01  1.92727186e-02 -6.27851337e-02  3.06498080e-01]
 [ 1.10687368e-01  2.76180625e-01 -1.24210680e+00 -5.13797641e-01
   3.45598161e-01  3.33630800e-01 -1.50393558e+00  1.01332165e-01
  -1.17374659e+01 -1.47584276e-02 -5.20993806e-02  1.02951385e-01
  -3.66770816e+00  4.95070741e-02  2.99111724e-01  2.80974302e-02
  -7.97852933e-01 -1.33288383e+00  3.03312421e-01  4.23118807e-02
   1.57796651e-01  1.10838465e-01 -3.10416311e-01  2.30049655e-01
   3.64809096e-01  9.45457593e-02 -2.77661890e-01 -2.24683344e-01
  -2.48173571e+00  1.45131618e-01 -5.54909892e-02 -6.17472696e+00
   2.92157736e-02 -2.15375328e+00 -8.83264303e-01 -7.45442247e+00
   2.31458402e+00 -5.17098713e+00  2.24803105e-01 -1.64960120e-02
   4.87065464e-02 -3.88058811e-01 -1.94650784e-01 -1.24095127e-01
   3.51903364e-02 -2.17193410e-01 -1.01081699e-01 -2.62744445e-02
  -1.31602850e+01  1.18224859e-01  6.83846325e-02  1.76792875e-01
   4.36023861e-01 -5.26102304e-01  6.37493059e-02  3.98632735e-01
  -1.53627551e+00 -1.32124677e-01 -4.41733074e+00 -2.97323287e-01
   9.40767583e-03 -1.34536231e+00  1.86066236e-02  3.99086028e-02
  -1.07520187e+00 -9.58060324e-01  1.84379756e-01  1.49864003e-01
   5.05924046e-01  2.28777193e-02  4.10521060e-01 -1.22331068e-01
   1.35935336e-01  2.15251401e-01 -1.46948427e-01 -5.00203371e-01
  -1.03781864e-01 -6.33735210e-02  1.58761531e-01 -3.76865119e-02
   9.44631770e-02  4.79837537e-01 -2.62274146e-01  4.22419310e-01
   1.16123371e-01  1.08490601e-01  4.80951965e-01 -4.55691367e-02
  -1.16390370e-01  1.83172852e-01  3.81170332e-01 -5.58336353e+00
   8.80621821e-02 -1.96634424e+00 -8.64279509e-01 -2.32861966e-01
   2.70721197e-01 -4.71364856e-02  2.22666219e-01  2.26572827e-02
  -6.05366230e+00 -4.44538546e+00  1.08656585e-01 -2.43633604e+00
   3.59646678e-01 -1.92936516e+00  4.98316109e-01  2.83392757e-01
  -5.34129180e-02  1.74595281e-01 -5.82404844e-02 -3.11222672e-01
   1.14627004e-01 -4.24073637e-02 -5.29823010e-04 -1.80726314e+00
   3.17654788e-01  3.54657806e-02  2.43027180e-01  9.08196568e-01
  -3.57695490e-01  7.49507606e-01  2.43826926e-01  2.58179754e-01
  -2.61680931e-01 -4.02409345e-01 -4.04627733e-02  1.89867705e-01]
 [-4.11621109e-02  4.39334691e-01 -8.30728054e-01 -1.55613482e-01
   1.52002603e-01  9.61346999e-02 -9.65973496e-01  1.41915947e-01
  -9.98925781e+00  1.55242383e-01  8.13695639e-02  1.12879269e-01
  -2.62878036e+00  2.12911814e-01  4.84351903e-01 -5.25230318e-02
  -5.94488859e-01 -1.17445123e+00  2.43050665e-01  1.28942328e-02
   1.08563162e-01  2.34499663e-01 -7.93018937e-01  1.59536570e-01
   2.48921320e-01  1.94467217e-01 -1.69737294e-01 -5.12736924e-02
  -1.54814911e+00  3.15746628e-02 -5.51972203e-02 -6.48486090e+00
   2.10135534e-01 -2.90788412e+00 -8.32707047e-01 -6.98399019e+00
   2.31564379e+00 -5.66439486e+00  9.82148200e-02 -8.09181109e-02
  -2.64490186e-03 -4.17597413e-01 -1.02993883e-01 -2.14591250e-01
  -3.20161022e-02 -1.52453572e-01 -2.41450861e-01 -5.72871715e-02
  -1.33862095e+01  2.85352916e-01  3.02189365e-02  1.75876573e-01
   5.70192099e-01 -4.52966660e-01  5.84123917e-02  2.70949781e-01
  -2.01804423e+00  6.53631538e-02 -4.17605734e+00 -3.10060054e-01
   1.78971305e-01 -2.43342733e+00  1.76572189e-01  1.53621331e-01
  -1.38634908e+00 -8.47452223e-01  4.31318544e-02  1.82473212e-01
   2.33180597e-01  1.85681917e-02  3.87016803e-01  2.20575213e-01
  -4.72434461e-02  1.49234030e-02  1.46037579e-01 -5.13287902e-01
  -7.24554956e-02 -5.09430841e-02  8.94021019e-02 -3.11591089e-01
   2.25624457e-01  5.88370264e-01 -2.79112816e-01  5.54892123e-01
  -1.57334477e-01 -7.74929896e-02  2.48749763e-01  6.89380616e-02
  -2.11922586e-01  2.93686062e-01  2.56508052e-01 -6.25892878e+00
   1.95457071e-01 -2.05483699e+00 -1.41553462e+00 -1.22517779e-01
   2.16263711e-01 -1.25650838e-01  2.94285297e-01  1.20386906e-01
  -6.36588812e+00 -2.91137958e+00  3.54741126e-01 -1.21493721e+00
   5.67304075e-01 -2.04696822e+00  5.71989477e-01  4.52494085e-01
  -6.34998754e-02  1.51994944e-01 -1.27168924e-01 -1.55975389e+00
   6.10890836e-02  3.78887206e-02  3.84816229e-02 -1.32739282e+00
   3.48790050e-01 -2.14497283e-01  4.14964557e-02  9.70197260e-01
   8.75375345e-02  3.61685425e-01  2.06463069e-01  2.66634852e-01
  -1.77366450e-01 -1.28989291e+00  3.54417525e-02  2.02536777e-01]
 [-2.13345420e-02  2.22232729e-01 -4.53312546e-01  6.47990173e-03
  -8.87645632e-02 -4.64383736e-02 -7.39482999e-01  9.58129838e-02
  -9.87575531e+00  2.47473150e-01  7.82533139e-02 -2.62183808e-02
  -1.60574770e+00 -7.13722333e-02  5.06843328e-01 -3.60385254e-02
  -3.78546685e-01 -9.79800880e-01 -1.81748513e-02 -6.12628199e-02
   2.51046509e-01  1.89950973e-01 -1.34536588e+00 -1.94855481e-02
   2.32741520e-01  1.85939699e-01 -1.91780046e-01 -9.87381116e-03
  -4.88821894e-01 -7.74167776e-02 -1.47841290e-01 -6.55267286e+00
   2.21374854e-01 -4.20263195e+00 -8.68846357e-01 -5.47978306e+00
   2.32806087e+00 -3.14754391e+00  2.67265737e-01 -1.39177144e-01
   7.52821043e-02 -2.06606492e-01  6.05166107e-02 -1.10311754e-01
   6.18124753e-02 -3.53349686e-01 -1.77285656e-01  1.84359536e-01
  -1.23208284e+01  2.99033791e-01 -1.75360218e-01  4.29912537e-01
   9.04328287e-01 -1.87172472e-01 -4.24686044e-01  4.14713532e-01
  -1.72260058e+00  2.60591686e-01 -4.38310766e+00 -1.68769911e-01
   2.25211680e-01 -3.29470921e+00  1.47969067e-01  1.00780658e-01
  -9.20495570e-01  4.19888236e-02 -7.92220533e-02  3.08057636e-01
   6.89235181e-02 -7.27281198e-02  4.27058995e-01  3.53049010e-01
   8.12652931e-02  1.20585822e-01  9.36577171e-02 -4.11624372e-01
   3.98405967e-03  8.60464051e-02  3.34169529e-02  3.44380997e-02
   1.54644966e-01  8.60181332e-01 -3.10100049e-01  3.49045813e-01
  -4.62471932e-01 -3.79992984e-02  9.21348333e-02  2.12883316e-02
  -3.90834570e-01  4.37983274e-01  2.57500727e-02 -7.14945316e+00
   2.88148850e-01 -1.96649504e+00 -1.44065011e+00 -6.15209304e-02
   6.41180351e-02 -1.03093699e-01  1.93480670e-01  2.10844785e-01
  -7.35281229e+00 -1.28314114e+00  5.49235165e-01 -1.04991460e+00
   5.60962200e-01 -9.02088165e-01  4.47937250e-01  4.84455138e-01
   1.32590234e-02  2.79236466e-01 -1.11980289e-01 -2.99973512e+00
  -5.74074015e-02 -5.07639870e-02  1.66084737e-01 -1.19655311e+00
   1.98514789e-01 -1.02550161e+00 -1.01795077e-01  9.99332249e-01
   3.28905843e-02 -1.17101809e-02  9.89740565e-02  4.67951030e-01
  -9.12252739e-02 -2.99809003e+00 -1.41427414e-02  1.53489187e-01]
 [-1.54352970e-02 -3.99858989e-02 -4.72655684e-01 -1.82827130e-01
  -8.22761953e-02  1.42905116e-01 -1.01763591e-01  5.55360131e-03
  -9.58790398e+00  2.55514592e-01 -1.88622370e-01  1.40776619e-01
  -4.68028188e-01 -2.82910109e-01  4.20283020e-01  3.09645105e-02
  -2.14595214e-01 -6.64917111e-01 -3.07767659e-01 -2.76923865e-01
   1.09687917e-01  6.09614998e-02 -2.69703937e+00  5.10390885e-02
   6.57499582e-02  2.51874328e-01 -1.93212718e-01 -5.11721745e-02
  -3.28322917e-01 -2.13235777e-04 -3.38491537e-02 -3.69128489e+00
   1.72211632e-01 -6.55958986e+00 -6.82315767e-01 -5.29504299e+00
   2.13223314e+00 -1.27817154e+00  5.01755416e-01 -2.51146108e-01
   4.23146933e-02 -5.25512040e-01  3.48685294e-01 -9.09077600e-02
  -1.06082290e-01 -4.88319516e-01  2.71728095e-02  4.50916111e-01
  -1.10735550e+01  3.79615396e-01 -2.60466933e-01  2.41185546e-01
   1.02785337e+00 -1.88053757e-01 -9.04128194e-01  1.82526961e-01
  -1.46039796e+00 -2.06014022e-01 -3.43841624e+00 -1.19008526e-01
   1.67636245e-01 -5.81416845e+00  1.12313077e-01  8.72052237e-02
  -6.89935088e-01  1.64565027e-01 -1.24560304e-01  3.43701005e-01
   4.06515628e-01  4.24077027e-02  3.93420815e-01  8.16180184e-02
  -8.34426135e-02  5.93900159e-02  3.35157245e-01 -2.57268310e-01
  -5.74973635e-02 -4.48539481e-02  7.10685253e-02  1.10741861e-01
   2.22429127e-01  9.34676945e-01 -1.01444721e-01  2.79140353e-01
  -4.53188360e-01  6.64896816e-02 -1.07541017e-01 -1.71426192e-01
  -1.02736853e-01  3.74527067e-01 -4.64685738e-01 -6.64734173e+00
   3.03266138e-01 -1.34500134e+00 -6.77405894e-01  1.43167660e-01
   1.12842366e-01 -3.80990803e-02  1.53229624e-01 -1.73578903e-01
  -7.38020468e+00  4.04353999e-02  3.95711988e-01 -9.85198975e-01
   4.38088089e-01 -9.03333724e-01 -2.04411551e-01  5.20946503e-01
  -2.63226312e-03  1.55919328e-01 -1.36511832e-01 -3.55333257e+00
  -1.72362328e-02 -7.81143159e-02  5.17140590e-02 -8.60423923e-01
   2.93099523e-01 -1.77861977e+00  1.06987245e-02  7.78229356e-01
  -2.02073783e-01  3.12777162e-01  1.64048195e-01  6.82353199e-01
   6.47024661e-02 -5.16483688e+00 -7.62577518e-04  2.77378082e-01]
 [-5.31473011e-02  1.63084490e-03 -7.13600218e-01 -3.00335288e-01
  -2.00705826e-02  2.83079147e-02  2.72786707e-01  1.50239408e-01
  -9.33899879e+00  1.40911460e-01 -3.29989046e-01  6.75646309e-03
   3.32703739e-01 -1.31344780e-01  6.45070195e-01 -4.37116623e-02
  -9.63094160e-02 -1.76543251e-01 -3.62261057e-01 -1.25298008e-01
   2.34585166e-01 -2.60285642e-02 -5.26474237e+00 -5.26650883e-02
   1.89016104e-01  1.94337159e-01 -1.92529708e-01  7.02892765e-02
   2.85831373e-02  4.92881052e-02  1.58625945e-01 -1.22748089e+00
   4.77581620e-01 -8.87650585e+00 -4.51964021e-01 -4.68626213e+00
   2.09600902e+00 -4.96118546e-01  7.20645666e-01 -2.17798069e-01
  -2.85813399e-02 -8.41725469e-01  5.74997306e-01 -9.91787091e-02
  -1.86470404e-01 -1.63915724e-01  4.16523851e-02  4.84982163e-01
  -9.35075569e+00  4.24712390e-01 -2.33388692e-01  4.42289591e-01
   8.39876473e-01 -3.02874334e-02 -1.12144744e+00  3.71230654e-02
  -1.33099568e+00 -1.00201234e-01 -3.05840087e+00 -5.33508994e-02
   1.15546271e-01 -6.99395752e+00  9.55961794e-02 -3.26581262e-02
  -2.78106719e-01  3.34214509e-01 -2.03728065e-01  3.81898880e-01
   8.75510097e-01  2.71378644e-02  2.55519539e-01 -9.67977941e-02
  -1.89505909e-02 -4.03851271e-03  3.82484704e-01 -1.45715714e-01
  -1.01413503e-02  9.21971947e-02  4.03399825e-01  3.40680033e-01
  -6.91275373e-02  1.40070081e+00 -1.24514319e-01  1.52780756e-01
  -4.95884806e-01 -1.71457231e-01 -1.44068450e-01 -2.18098581e-01
  -3.00942004e-01  3.42566431e-01 -3.22613329e-01 -5.60820580e+00
   3.09769422e-01 -1.19366133e+00  3.01315844e-01  4.46307927e-01
   2.92404771e-01 -1.79420263e-01  9.07324851e-02 -2.04558194e-01
  -6.58692598e+00  5.79965055e-01  1.49571538e-01 -9.92856741e-01
   3.22248548e-01 -5.52082397e-02 -7.60300934e-01  5.18524826e-01
  -2.06216127e-02  7.26967007e-02 -5.08746803e-02 -2.44580936e+00
   1.52807623e-01 -9.84294862e-02  1.20247535e-01 -5.53868949e-01
   5.07935405e-01 -3.28620052e+00 -6.45061359e-02  1.00992894e+00
  -3.82144958e-01  4.51880813e-01  3.09959590e-01  4.07955050e-01
  -4.77934256e-02 -5.16185665e+00 -1.89966843e-01  2.86109418e-01]
 [ 9.62909609e-02 -1.43319443e-01 -5.86055398e-01 -2.86775500e-01
   1.44516841e-01  3.79865058e-02  3.77920836e-01  3.94810848e-02
  -9.14003372e+00 -1.20797724e-01 -5.02484024e-01  3.48492086e-01
   9.77073014e-02  4.55838516e-02  4.78057534e-01  3.70654054e-02
  -2.43496639e-03 -7.48498738e-01 -2.60595739e-01 -6.94221854e-02
   3.90639842e-01  1.16629571e-01 -6.49060297e+00  5.01183309e-02
   2.90592045e-01 -3.55122328e-01 -2.29175285e-01  2.29051128e-01
   1.23284154e-01  1.06015876e-01  1.81134626e-01 -4.01103348e-01
   3.64799649e-01 -1.11984787e+01 -1.84693150e-02 -3.71877694e+00
   1.92491865e+00  8.77304524e-02  8.55605841e-01 -1.59751490e-01
   3.73012945e-02 -1.26707137e+00  6.79822147e-01 -1.93100333e-01
  -1.03379801e-01 -1.96792185e-01 -3.84452403e-01  3.75982493e-01
  -7.78891516e+00  5.30199289e-01 -1.94612116e-01  4.47015852e-01
   5.28831422e-01 -3.59951593e-02 -1.48593724e+00 -1.22732259e-01
  -1.04613805e+00 -3.78466666e-01 -2.92082286e+00 -4.38693538e-02
   1.28467023e-01 -6.08472919e+00  9.53623280e-02 -1.55670658e-01
  -2.04833731e-01  2.56206602e-01 -1.86439365e-01  3.37735981e-01
   1.26096594e+00  4.55437042e-02  3.13455611e-01  2.75994316e-02
   1.46202371e-01 -1.64698616e-01  7.06718087e-01  1.19984895e-01
   4.46381196e-02 -2.62311194e-03  2.19918191e-01  2.65862375e-01
  -1.88345596e-01  1.72302103e+00  9.85396355e-02 -5.39211817e-02
  -6.51533782e-01 -1.82192400e-01 -3.26165631e-02 -1.21937431e-01
  -1.56067416e-01  2.70587921e-01 -2.53718793e-01 -4.20588207e+00
   1.40808985e-01 -8.67912650e-01  7.69714057e-01  2.47518077e-01
   3.24337482e-01 -3.45094770e-01 -2.15265043e-02 -2.32406676e-01
  -6.27713919e+00 -7.97060579e-02 -1.84141155e-02 -8.08433652e-01
   4.53131706e-01 -2.90936559e-01 -1.26503420e+00  5.51560581e-01
  -1.08615560e-02  1.48375466e-01  2.18779460e-01 -2.98318148e+00
   3.32429349e-01 -6.14872985e-02 -2.43477225e-02 -2.57976204e-01
   3.75642300e-01 -4.87162590e+00  2.38054991e-01  7.56140888e-01
  -2.68153220e-01  3.94552499e-01  1.63545221e-01  3.46167296e-01
   9.27110240e-02 -4.74256277e+00 -2.44998232e-01  7.05035329e-02]
 [-4.14512992e-01  6.06836230e-02 -7.06763566e-01 -3.05598080e-01
   1.80388521e-02 -2.95991753e-03  2.89106280e-01 -2.54246891e-02
  -8.16513634e+00 -6.52045310e-02 -4.39730614e-01  3.53215486e-01
  -2.91206330e-01 -1.17290139e-01  2.66456425e-01  3.60656343e-02
   7.84696490e-02 -3.58697921e-01 -2.46766582e-01 -1.60718024e-01
   2.21565887e-01  1.70563653e-01 -7.10833836e+00 -3.10478181e-01
   4.11566913e-01 -8.90727580e-01 -3.18927079e-01  1.34630829e-01
   2.04742506e-01  9.07436460e-02  2.31796712e-01  5.83937764e-01
   3.97752315e-01 -1.23910694e+01  7.77488202e-02 -2.11254525e+00
   1.83899319e+00  5.70172966e-01  9.85401511e-01 -3.17242146e-01
  -2.54774168e-02 -1.38304317e+00  1.03744793e+00 -3.88480663e-01
  -6.05981387e-02 -1.85854018e-01 -1.02160633e+00  4.97955352e-01
  -5.83947754e+00  4.27628309e-01  1.98443271e-02  3.47187698e-01
   4.51846778e-01 -1.01807833e-01 -1.26625848e+00 -1.85181379e-01
  -9.44868863e-01 -1.25356302e-01 -1.85005629e+00 -1.90667361e-01
   3.32031757e-01 -4.59511328e+00  2.88654774e-01 -1.32156774e-01
   7.41057396e-02  5.10848463e-01 -1.89544812e-01  1.51879653e-01
   9.53929186e-01 -6.98942319e-02  3.14565152e-01 -6.98736757e-02
   6.41638637e-02 -1.79982752e-01  6.40735924e-01  1.20066956e-01
  -7.36584887e-02  1.41390219e-01  2.09720090e-01  3.23015545e-03
  -1.00914128e-01  1.49052095e+00 -4.59371787e-03  1.13167956e-01
  -4.82070267e-01 -2.54961759e-01 -2.12465137e-01 -2.15813652e-01
  -1.10029809e-01  1.49450153e-01 -1.85167462e-01 -2.79132009e+00
  -2.39159167e-01 -3.05084556e-01  7.53479242e-01  2.16932580e-01
   5.00738740e-01 -3.45170259e-01  8.87255222e-02 -1.82514399e-01
  -4.56802225e+00 -7.64824390e-01 -3.70155312e-02 -2.60968536e-01
   3.37125301e-01 -4.44993675e-01 -1.97035098e+00  3.69283497e-01
   4.03966568e-02 -2.68235570e-03  1.64815616e-02 -3.89225745e+00
   4.18929577e-01  4.75446768e-02 -1.63019091e-01 -3.09474409e-01
   5.38576722e-01 -5.36576128e+00  1.60625771e-01  6.15748048e-01
  -2.46952218e-03  4.72868502e-01  3.12893867e-01  4.91408497e-01
  -2.54881829e-02 -3.48524332e+00  1.63123623e-01  2.91219484e-02]
 [-4.01965082e-01  2.09627554e-01 -6.12130761e-01 -1.70656547e-01
  -6.77651912e-02 -1.11682169e-01  4.23175365e-01 -5.60695902e-02
  -7.64997864e+00  2.19916552e-01 -2.49016494e-01  6.47742450e-01
  -4.42376733e-01 -2.92997748e-01 -7.37997368e-02 -8.93844292e-02
   2.95673698e-01 -4.44985747e-01 -3.71306777e-01 -2.57509649e-01
   3.54913294e-01  9.06501636e-02 -7.45926762e+00 -3.86484146e-01
   4.95794237e-01 -1.79274738e+00 -1.84918031e-01  2.04066455e-01
   6.36478066e-02  1.22632682e-01  2.55629182e-01  9.37383711e-01
   5.34590065e-01 -1.36603584e+01  7.24023208e-02 -1.81029534e+00
   1.71415257e+00  9.84890521e-01  1.21496093e+00 -7.08800405e-02
  -4.21583652e-02 -1.76292241e+00  9.53906834e-01 -3.89581412e-01
  -3.20792943e-01 -1.25608549e-01 -1.86390531e+00  6.22481585e-01
  -5.31780815e+00  2.45425150e-01 -9.71939787e-02  5.01922905e-01
  -1.41933942e-02  9.42751765e-02 -1.24135518e+00 -8.96383047e-01
  -6.54991508e-01 -1.43840358e-01 -1.61312687e+00 -2.86321389e-03
   4.27623808e-01 -2.95327401e+00  3.03406298e-01 -9.96055827e-03
  -1.29639119e-01  3.04414898e-01 -9.85415280e-02  1.23059265e-01
  -3.14163387e-01  9.75342933e-03  1.43813379e-02 -2.27257371e-01
   8.43428820e-02  8.94197449e-02  6.23254359e-01  3.74308169e-01
  -6.65603578e-02  3.25145036e-01 -7.31344568e-03  8.48751962e-02
  -2.64374733e-01  1.82769835e+00 -1.09074004e-01  4.86843377e-01
  -4.88815159e-01 -7.94241205e-02 -2.36479759e-01 -5.64277470e-01
   1.29917696e-01  3.58959645e-01  1.77809224e-01 -1.78362858e+00
  -5.15041709e-01  1.42279163e-01  9.58251655e-01  2.65392065e-01
   3.37212175e-01 -3.32585096e-01  1.11337841e-01 -2.39651740e-01
  -3.83699346e+00 -1.50381172e+00 -3.57968599e-01 -3.87409665e-02
   3.40055764e-01 -5.40818989e-01 -3.57955241e+00  3.14903617e-01
  -2.95457337e-02 -5.80622368e-02  9.25577134e-02 -4.26704741e+00
   4.01771158e-01 -3.12523618e-02 -6.78979099e-01  2.93752179e-03
   6.89439178e-01 -6.20650625e+00 -1.89049868e-03  5.45574903e-01
  -1.08474076e-01  2.31386736e-01  3.02370012e-01  4.60327119e-01
   6.97279945e-02 -1.65549469e+00  5.71852699e-02  2.13825434e-01]
 [-1.11454916e+00  3.22522521e-01 -1.15107286e+00 -2.22814009e-01
  -9.50949360e-03 -2.57206950e-02  4.96228009e-01  7.79268593e-02
  -6.89992046e+00  2.70248175e-01 -2.07627967e-01  9.67535555e-01
  -1.74916580e-01 -2.95445532e-01 -2.57683039e-01 -5.38913645e-02
   2.33045563e-01 -1.21663876e-01 -5.08549988e-01 -3.43725011e-02
   1.03233807e-01  6.13188669e-02 -7.03744888e+00 -6.26380622e-01
   3.95205408e-01 -4.05840254e+00 -2.59679314e-02  3.21596980e-01
  -3.30730855e-01  2.07720861e-01  2.98964351e-01  8.01457345e-01
   1.35732800e-01 -1.43280363e+01 -1.61804944e-01 -1.56064117e+00
   1.52731025e+00  1.38546073e+00  1.10526323e+00 -5.22797585e-01
  -8.05319175e-02 -2.30776405e+00  7.86996007e-01 -7.96367645e-01
  -2.38958791e-01 -8.36588070e-02 -1.85954535e+00  5.76552391e-01
  -5.30007648e+00  4.36426222e-01 -1.21464536e-01  6.23240590e-01
  -3.37678939e-01  1.24536946e-01 -7.10615814e-01 -2.16150546e+00
  -4.15880978e-01 -1.84324428e-01 -1.07512963e+00  1.96294829e-01
   2.89777875e-01 -2.49575663e+00  5.41439578e-02  2.48094974e-03
   1.87656850e-01  4.75421160e-01  3.23459841e-02  3.80751163e-01
  -1.53997374e+00 -2.51279920e-02 -1.32642150e-01 -5.39452851e-01
   1.09044880e-01  1.96019903e-01  4.66545165e-01  4.40772831e-01
   4.00378965e-02  2.54054755e-01 -1.76894926e-02  1.07407019e-01
  -2.16693416e-01  1.58418906e+00 -6.72286600e-02  2.78562605e-01
  -5.46162426e-01 -2.11943954e-01  1.27389789e-01 -6.63983345e-01
   2.31953144e-01  4.88769323e-01 -1.00242943e-01 -1.03322528e-01
  -7.90009081e-01  3.76432449e-01  7.18559086e-01  4.25058216e-01
   2.77899653e-01 -2.94586807e-01  6.47422718e-03  3.85643132e-02
  -2.59363794e+00 -2.30928779e+00 -4.38383400e-01 -2.63357669e-01
   5.19938886e-01  6.63876161e-02 -6.89179325e+00  3.83405149e-01
  -6.18813857e-02 -1.25542060e-01  1.68507680e-01 -4.27356195e+00
   2.04464033e-01  3.79883423e-02 -6.86805487e-01 -1.57184049e-01
   3.91460150e-01 -6.34744596e+00 -1.35785667e-02  2.99871802e-01
  -6.82584420e-02  1.06513249e-02  4.51876819e-01  3.74305904e-01
   5.34908138e-02  2.76423674e-02  3.73928808e-02  6.66733459e-02]
 [-7.35817480e+00  4.88213062e-01 -1.70304596e+00  2.83576518e-01
   1.10758178e-01 -6.55984282e-02  5.02599716e-01  1.22728132e-01
  -5.61276197e+00  2.72760272e-01 -1.60386175e-01  7.82531679e-01
  -2.96459138e-01 -2.25940242e-01 -5.41440964e-01  4.29523662e-02
   2.91796207e-01 -2.96485394e-01 -3.39063108e-01  3.68204080e-02
  -2.83681192e-02  2.49889731e-01 -6.26976109e+00 -8.93343449e-01
   3.05166572e-01 -6.89168549e+00 -1.71265453e-01  2.90589333e-01
  -3.88601542e-01  1.10542923e-01  4.17052031e-01  3.51313680e-01
  -7.77213722e-02 -1.41088142e+01 -1.32641168e-02 -1.23828423e+00
   1.34326053e+00  1.75161815e+00  8.32842052e-01 -1.24021745e+00
  -4.96544987e-02 -2.60126495e+00  3.84498835e-01 -1.31713021e+00
  -5.19168496e-01  4.35023569e-02 -6.99589252e-01  8.09183002e-01
  -4.99622297e+00  3.61639857e-01 -1.10092983e-01  7.66422570e-01
  -6.32346213e-01  1.05968855e-01 -5.97431242e-01 -3.23789573e+00
  -3.40661585e-01  3.74735817e-02 -7.96558917e-01  1.04063332e-01
   2.39132300e-01 -2.45139265e+00  5.63011505e-02 -1.39285168e-02
   3.88876975e-01  7.35020459e-01  2.38360003e-01  2.32819006e-01
  -4.68496943e+00 -6.65088072e-02  7.14151561e-02 -2.11867750e-01
   1.21527478e-01  1.95844024e-01  3.45138222e-01  7.23800421e-01
   4.31464314e-02  4.48818624e-01  5.30022755e-03  3.03125102e-02
   5.53596132e-02  1.31658328e+00 -7.00911283e-02  2.71262258e-01
  -5.56451142e-01 -2.92439550e-01  2.89211303e-01 -8.04364383e-01
   4.07575727e-01  3.85968715e-01 -5.98362565e-01  7.59861767e-01
  -1.03745663e+00  1.58860624e-01  8.05945992e-01  5.91151714e-01
   4.26688433e-01 -6.41653240e-01 -9.44572687e-02  1.50719896e-01
  -2.07220173e+00 -1.09013236e+00 -2.12027907e-01 -2.85077572e-01
   3.33295196e-01  4.53073859e-01 -8.84692478e+00  5.28425872e-01
  -9.74812731e-02  4.64637466e-02  3.60263914e-01 -3.95378351e+00
   3.97882462e-01  6.02515005e-02 -9.84553754e-01 -1.17624633e-01
   3.66609961e-01 -6.07676411e+00  1.85358509e-01  1.78216234e-01
  -2.28700727e-01 -2.67915219e-01  3.70995075e-01  5.78619540e-01
   2.12652341e-01  7.15472460e-01 -9.92373452e-02  8.42167065e-02]
 [-1.03048487e+01  6.51246130e-01 -1.64914978e+00  8.00144076e-02
   1.65967494e-02  1.16975628e-01  7.51357257e-01  9.80450884e-02
  -2.97886515e+00  2.13263094e-01 -4.60081071e-01  8.64524543e-01
  -7.19408631e-01 -4.87064391e-01 -8.10329854e-01  6.19108975e-02
   2.83366770e-01  5.35871089e-01 -5.69613874e-01 -2.35257640e-01
   4.18086350e-02  3.99707019e-01 -4.51413584e+00 -8.45166326e-01
   4.83147860e-01 -7.35559511e+00 -3.36259991e-01  2.91607052e-01
  -5.33022046e-01 -1.63104665e-02  5.72167337e-01  1.11794420e-01
  -3.22081625e-01 -1.33071661e+01 -2.31950451e-02 -7.28876173e-01
   9.79837775e-01  1.38017952e+00  4.87496406e-01 -1.46672165e+00
  -5.36785275e-02 -3.12926555e+00  2.60058820e-01 -4.27119255e+00
  -8.12193215e-01 -4.25597578e-02  3.65960658e-01  9.06320095e-01
  -4.46865416e+00  5.42012691e-01  4.98020202e-02  5.13657093e-01
  -9.91626918e-01  4.03318182e-02 -1.53679233e-02 -3.19847345e+00
  -1.69506505e-01  1.02595083e-01 -3.44365001e-01  5.47245704e-02
   7.02005088e-01 -2.13762426e+00  1.15430437e-01 -1.66697323e-03
   8.37739289e-01  5.62818766e-01  4.02538538e-01  1.44080117e-01
  -1.00382376e+01 -7.73110241e-02  3.84877205e-01  5.86760566e-02
  -7.11169317e-02  9.77812633e-02  3.08863103e-01  8.59893143e-01
   9.55115352e-03  4.37173188e-01  1.65130440e-02 -7.14492286e-03
   3.53865057e-01  7.40969241e-01 -1.17759416e-02  4.05783474e-01
  -5.36246598e-01 -4.15625304e-01  3.20004612e-01 -3.02043498e-01
   2.50629067e-01  4.09132183e-01 -4.93266165e-01  1.10760427e+00
  -2.27437496e+00  3.64625543e-01  8.75953674e-01  5.89872718e-01
   1.89113855e-01 -8.49852085e-01  4.38634753e-02 -1.24870643e-01
  -1.58414757e+00 -5.51125109e-01 -4.23300922e-01 -8.55450779e-02
   5.08641243e-01  6.26146495e-01 -8.36036301e+00  5.02774954e-01
  -1.36082936e-02  1.69140279e-01  2.71184713e-01 -2.77478623e+00
   1.50553107e-01 -2.01187432e-02 -9.20435667e-01 -9.19695646e-02
   1.78452462e-01 -5.85544395e+00  2.62048781e-01  1.67517364e-01
   5.82230054e-02 -4.30952847e-01  2.82554328e-01  7.03342795e-01
   1.66754141e-01  1.04497516e+00  8.24965239e-02  1.35541886e-01]
 [-1.01074390e+01  8.94203663e-01 -1.51548553e+00  1.26785979e-01
   8.34763870e-02  5.98960035e-02  6.02648079e-01 -3.41048241e-02
  -1.42874455e+00 -7.02649355e-02 -4.97902542e-01  3.17021012e-01
   2.16960549e-01 -7.05277026e-01 -1.12415338e+00  2.25997306e-02
   4.52501386e-01  1.06278265e+00 -4.58268195e-01 -6.70680627e-02
  -1.94281965e-01  2.45176136e-01 -2.65856862e+00 -8.13644588e-01
   3.61498892e-01 -5.93905687e+00 -1.69354171e-01  6.44238710e-01
  -1.28180456e+00  6.68022484e-02  6.36876225e-01 -3.71188782e-02
  -1.08213973e+00 -1.13873491e+01  1.31241918e-01 -5.23562372e-01
   8.32799196e-01  1.02091539e+00  2.52269655e-01 -9.82305646e-01
   4.82542105e-02 -4.23578119e+00  3.46740365e-01 -6.54597521e+00
  -1.07701933e+00 -1.61897928e-01  8.11374307e-01  6.26094222e-01
  -3.29406691e+00  6.19988978e-01 -3.50241736e-02  4.75842029e-01
  -5.42569458e-01  2.05700099e-02 -3.63248922e-02 -3.04336762e+00
   1.75680429e-01  1.29781216e-01 -1.13088347e-01  5.09429164e-02
   7.74548650e-01 -1.97513068e+00  1.02339283e-01  7.97076002e-02
   9.16656971e-01  7.23698676e-01  1.07532226e-01  2.64998883e-01
  -1.43259287e+01 -5.20262308e-02  2.06262127e-01 -4.19841528e-01
   3.02456995e-03  2.21595336e-02  1.80576503e-01  7.27781832e-01
  -1.82253513e-02  4.74915028e-01 -1.54281324e-02 -3.39446850e-02
  -5.24869785e-02 -1.04334377e-01 -3.84974718e-01  1.64163932e-02
  -7.33919919e-01 -6.67561591e-01  6.75840601e-02 -4.72778566e-02
   2.20484897e-01  2.41208568e-01 -5.16477287e-01  1.18709195e+00
  -5.37643957e+00  8.00072670e-01  1.07061851e+00  5.48759699e-01
   1.75186843e-01 -1.03377509e+00 -3.72490026e-02 -5.86862937e-02
  -2.20849586e+00 -7.30527461e-01 -4.54390436e-01 -1.82256773e-01
   4.53881353e-01  1.07813740e+00 -7.27009344e+00  5.42004168e-01
  -5.71942069e-02 -1.39375806e-01  3.21527898e-01 -2.48928475e+00
   1.51280150e-01  3.68370302e-02 -1.24889600e+00  1.51782662e-01
   2.20921710e-01 -4.83876753e+00  8.24967846e-02  4.33289409e-01
   5.85474968e-02 -4.00525093e-01  3.47596183e-02  3.14601034e-01
  -3.86480689e-02  1.03130209e+00  1.86744198e-01 -8.39056522e-02]
 [-1.10678682e+01  1.12319231e+00 -1.49011862e+00  9.43770483e-02
   9.17689428e-02 -3.98487985e-01  9.21835184e-01  4.34507310e-01
  -7.00131834e-01 -1.19280386e+00 -6.16903543e-01 -6.45438373e-01
   6.52748346e-01 -1.58338296e+00 -1.99285543e+00 -4.85582091e-02
   7.49683738e-01  1.40966642e+00 -1.21398902e+00 -1.80681095e-01
  -1.76984739e+00  6.22809231e-01 -1.37680507e+00 -8.39956999e-01
   8.94487321e-01 -5.32265043e+00  3.63767475e-01  5.57583869e-01
  -1.62275910e+00  2.08139405e-01  1.14388716e+00 -4.91570115e-01
  -1.46486056e+00 -1.05185089e+01  1.33281603e-01  5.97593077e-02
   2.10843253e+00  1.49129832e+00 -2.00683284e+00  3.24184418e-01
  -5.88067397e-02 -4.77957439e+00 -4.14392829e-01 -5.68880844e+00
  -1.45479059e+00 -1.46956414e-01  1.31081593e+00  3.55169863e-01
  -2.15544295e+00  1.04256248e+00 -1.68963030e-01  8.66594836e-02
   3.73102188e-01  4.07384068e-01  4.05742109e-01 -2.05049801e+00
  -3.67095582e-02  3.15303773e-01  6.79200947e-01  5.61116219e-01
  -8.39235038e-02 -2.09885526e+00  7.47657418e-02  2.56970733e-01
   9.30094242e-01  7.32303023e-01 -5.28869033e-02  1.73855215e-01
  -1.84963036e+01  6.52584508e-02 -8.43446374e-01 -1.43599164e+00
   2.16707304e-01  4.86906022e-01 -4.16298211e-01  9.67842519e-01
   6.59758449e-02  3.02472502e-01 -1.16190886e+00  1.96422160e-01
  -5.20469427e-01 -9.60673511e-01 -9.65401411e-01  2.23286990e-02
  -6.30772829e-01 -2.10839248e+00 -5.39665282e-01  7.14523271e-02
   4.59396720e-01  3.39531571e-01 -7.26789296e-01  1.73669398e+00
  -1.15768738e+01  9.04932320e-01  6.56944335e-01  8.33651304e-01
   3.22281301e-01 -1.05006170e+00  2.07938135e-01 -2.26575494e-01
  -2.81778145e+00 -1.01468945e+00 -9.57554698e-01  8.40358377e-01
   3.01581621e-01  8.44701350e-01 -7.99597788e+00  8.02637279e-01
  -7.05631226e-02 -1.05454826e+00 -2.82156207e-02 -2.17820740e+00
   5.97426534e-01 -3.09138633e-02 -1.43528211e+00 -6.94159232e-03
   6.77060366e-01 -3.86665606e+00 -5.35479560e-02  8.03621471e-01
  -3.13910842e-01 -4.64358479e-01 -6.30576015e-02 -5.06725669e-01
   1.74202898e-03  2.73149443e+00  9.44514394e-01 -1.22840285e+00]
 [-1.09396470e+00  3.27915065e-02 -4.46764648e-01 -1.40423632e+00
  -3.40537786e-01  6.32054210e-02 -1.37031317e+00  2.84628030e-02
  -7.17373669e-01  5.80362678e-02 -5.17928064e-01 -1.09382018e-01
   8.22082639e-01 -1.22327924e-01  7.25580633e-01  2.76534129e-02
  -1.59008694e+01  5.91801286e-01  7.00622439e-01 -3.72592998e+00
  -4.25317621e+00  1.07148595e-01  3.82395089e-02  2.11212546e-01
  -1.96512187e+00 -5.33808136e+00  2.49423742e-01 -8.77588177e+00
  -8.62552404e-01 -1.05386272e-01  4.67898883e-02 -7.11818993e-01
  -1.58032930e+00  2.68992424e-01 -6.07343197e-01 -4.94478703e+00
   1.47247255e+00  3.65922004e-01 -6.90113783e-01 -2.64778167e-01
  -1.64065212e-02  1.58638328e-01 -2.81685650e-01 -2.42859912e+00
  -1.11583844e-01 -1.17376566e+00  1.77098608e+00  4.73041534e-01
  -2.33448958e+00 -1.51535153e+00 -1.61214435e+00 -1.31132507e+01
   1.51549112e-02  1.89834535e-01 -1.52163997e-01 -5.86503744e-01
  -2.84916848e-01  1.22695088e-01  4.31913584e-01  3.04398298e-01
  -9.48871255e-01 -8.54693949e-01  1.93901405e-01 -5.48506081e-01
   4.58994836e-01 -1.17133546e+00 -2.34328413e+00 -7.98009038e-01
   3.50502014e-01 -5.27337473e-03  5.65458119e-01 -1.48453665e+00
   2.49698415e-01  3.05863827e-01 -7.57708549e-01  1.41371000e+00
  -4.32656258e-02  2.14520037e-01  1.83164418e+00 -2.25105524e-01
  -4.87222895e-03  4.53438431e-01 -1.13638982e-01 -5.50623417e-01
  -7.31721446e-02 -1.64933931e-02 -4.07097220e-01 -3.29328626e-02
   3.71340424e-01 -1.12017721e-01  4.53840971e-01  1.45071745e+00
  -1.60392582e+00  1.05864191e+00  7.47356951e-01  2.92539001e-01
  -6.62197247e-02 -4.97093052e-01  1.11414589e-01  2.86251664e-01
   3.91183943e-01 -1.26352465e+00 -1.74145982e-01  1.41673183e+00
  -1.17003956e+01  7.52161801e-01  3.73875082e-01  1.30759627e-01
   1.15100639e-02  6.40839040e-01  5.69605902e-02  6.00601494e-01
   9.95781645e-02 -1.07674927e-01 -3.61706674e-01  3.62052433e-02
  -1.16430223e+00  3.61834317e-01  7.19162747e-02 -1.22966781e-01
  -3.19950581e-01 -9.66550946e-01  5.95093099e-03  5.26749231e-02
   1.52922988e-01 -1.69148520e-01 -2.43275094e+00 -3.16392720e-01]
 [ 1.22150563e-01 -3.73029299e-02  1.54894724e-01 -1.08177316e+00
  -1.43813789e-01  1.79523781e-01  2.37874910e-01 -4.98871095e-02
  -6.42541051e-01  7.69102424e-02  6.08496189e-01 -2.16056913e-01
  -4.98405099e-01  7.97645211e-01 -7.44208694e-02 -4.17500138e-02
  -1.30651054e+01 -6.24142308e-03  7.24215508e-02 -2.05556059e+00
  -3.80003357e+00  3.17121476e-01  3.74436706e-01  8.58569518e-04
  -1.64044285e+00 -4.26027441e+00  2.32219756e-01 -7.67343092e+00
   2.60155827e-01 -4.18177933e-01 -6.50582373e-01  2.14851052e-02
  -1.09385347e+00 -2.67898619e-01  3.79221052e-01 -3.73585105e+00
   2.83734173e-01 -2.51575142e-01  2.97140956e-01  3.27502608e-01
  -5.10879653e-03 -1.46875650e-01  6.08689897e-02 -3.01335239e+00
   1.45570859e-01 -6.54784918e-01  7.86789060e-01 -1.07258759e-01
  -1.81320453e+00  2.45662302e-01 -9.25207257e-01 -9.87774849e+00
   8.40984210e-02  1.21897824e-01 -6.18858218e-01  2.09364712e-01
   1.57896295e-01  1.70169156e-02 -1.38094584e-02 -2.73051143e-01
  -3.48729014e-01  9.25315559e-01 -9.35974345e-02 -1.35630414e-01
   4.44417268e-01 -1.01610196e+00 -7.30527639e-01 -8.63029778e-01
   9.30693075e-02  9.65846982e-03 -1.24506973e-01 -1.69277859e+00
  -1.50336683e-01  1.04760379e-01 -3.46073300e-01  4.13014889e-01
  -8.35973993e-02 -2.88987339e-01  1.36443865e+00  1.13237962e-01
   2.18104467e-01 -2.78853536e-01  2.73030639e-01 -8.10183048e-01
   1.03468731e-01 -2.48439401e-01 -5.89591563e-01 -2.08143368e-02
   6.16065646e-03  4.93632443e-02  2.99438894e-01  1.20451272e-01
  -4.16541427e-01  7.44454622e-01  3.07662398e-01 -1.19654529e-01
  -3.83604586e-01  2.19490096e-01 -2.11941823e-01  2.07859233e-01
  -2.32128054e-01  6.47176445e-01  1.87681153e-01  6.76158249e-01
  -1.09755344e+01  6.13605201e-01 -2.15152904e-01 -9.20906067e-02
   8.60458589e-04 -8.14263299e-02 -7.39620486e-03  1.89598948e-01
  -8.18230137e-02 -7.92333856e-02  1.66526511e-01  3.14766824e-01
  -2.16860220e-01  3.59189004e-01  3.03025812e-01  1.01245187e-01
   1.59204617e-01 -5.55839062e-01 -7.50706270e-02 -1.30111024e-01
   9.43709463e-02 -4.51086611e-02  5.27968220e-02  1.33014798e-01]
 [ 7.49414116e-02 -4.03034166e-02 -1.48210078e-01 -1.07179272e+00
  -8.63799825e-02  4.75984812e-02  5.70885897e-01 -6.12461148e-03
  -1.03375268e+00  1.23876274e-01  5.99623084e-01 -3.20451766e-01
  -1.81257457e-01  3.86833191e-01 -1.44271702e-01 -3.67431156e-03
  -1.19132366e+01  1.03730194e-01  1.86695263e-01 -1.96802044e+00
  -1.97295144e-01  1.11647867e-01  4.73651744e-04 -1.11550637e-01
  -5.60167015e-01 -2.47615886e+00  1.36542559e-01 -4.39966106e+00
   4.46369499e-01 -4.68836240e-02 -4.00935352e-01  5.96541882e-01
  -4.33048397e-01 -1.56007588e-01  5.09385586e-01 -3.76173353e+00
   2.99828589e-01 -4.05894011e-01  1.76467925e-01  3.55508983e-01
   4.50474508e-02 -2.68793046e-01  1.14552334e-01 -3.93883681e+00
   1.63309649e-01 -4.39201206e-01  4.62345034e-01 -3.50787081e-02
  -1.85462177e+00  3.84514928e-01 -3.83718520e-01 -6.02663279e+00
  -2.90470943e-02 -1.03510329e-02 -7.24974811e-01  3.94776389e-02
   1.19775146e-01 -2.15957448e-01  1.98193699e-01 -2.52390087e-01
  -1.57965332e-01  1.23540699e+00  8.20091590e-02  3.03447843e-01
   1.85681373e-01 -1.59270346e+00 -4.98124987e-01 -6.73891306e-01
   3.28999199e-02 -9.67281759e-02 -7.64476061e-02 -1.73087788e+00
  -1.78992882e-01  7.18045840e-03 -1.26712418e+00  6.27646595e-02
   5.45400195e-02 -2.63784081e-01  1.24033344e+00  1.26222253e-01
   5.80922440e-02 -2.36394685e-02  1.08425647e-01 -1.10777605e+00
  -3.00695077e-02 -8.68308693e-02 -4.85333860e-01  8.12706649e-02
   5.74522056e-02  1.24889342e-02  5.01618348e-02 -1.34798959e-01
  -1.43725410e-01  6.08939409e-01  2.16980591e-01  1.56232402e-01
  -3.01650524e-01 -1.93671212e-01 -1.77226111e-01  2.10261449e-01
  -2.24969059e-01  8.38817358e-01  2.92131931e-01  5.06496370e-01
  -1.05313244e+01  3.91281724e-01 -3.90498638e-01 -1.57367457e-02
   4.21473347e-02 -1.17542803e-01  9.88596380e-02  6.62350804e-02
  -7.82233253e-02  2.84693446e-02 -1.80401891e-01  2.79073089e-01
   7.52809048e-02  3.09224069e-01  1.70139462e-01 -9.19454172e-02
   4.29457247e-01 -2.31874749e-01 -2.84856874e-02 -1.87050849e-02
   1.49672449e-01 -4.30306084e-02  1.46079183e-01  9.33133662e-02]
 [-5.63882031e-02 -7.10235089e-02  3.38094473e-01 -5.85121453e-01
  -2.92601660e-02 -1.48233071e-01  3.62432927e-01  8.35886672e-02
  -1.61693883e+00  1.98439941e-01  3.49724263e-01 -1.95828721e-01
  -1.31667495e-01  3.80821168e-01 -6.93243695e-04 -1.06577564e-03
  -1.12239418e+01 -3.22636366e-02  2.46263310e-01 -2.25603199e+00
   4.48944330e-01 -9.98830646e-02 -3.80243212e-02  2.28771955e-01
   2.23412856e-01 -3.53348535e-03  8.07745010e-02 -8.74969304e-01
   5.42307019e-01 -4.32681944e-03 -6.33790344e-02  1.09140813e+00
  -3.93481433e-01 -1.94079205e-01  2.02682406e-01 -4.13544703e+00
   5.24142802e-01 -9.76124704e-02 -1.54945314e-01  4.37466294e-01
   6.88745230e-02 -1.87615484e-01  1.58214808e-01 -2.45833993e+00
  -1.66375756e-01 -2.46256456e-01  5.10823250e-01  3.84744518e-02
  -1.04693305e+00  6.16432689e-02 -2.45071486e-01 -3.18526506e-01
   2.11898237e-01  4.05026693e-03 -3.51536930e-01 -1.76699236e-02
   2.43476316e-01 -1.98224217e-01  2.29001701e-01 -8.22477490e-02
  -1.11204341e-01  1.14884901e+00  1.61065847e-01  4.93102342e-01
  -1.85907241e-02 -2.57035589e+00 -1.36556163e-01 -4.53850806e-01
  -9.69179496e-02 -5.05120493e-02 -4.50957745e-01 -2.29175973e+00
  -8.90609622e-02  1.92688536e-02 -2.24871349e+00 -2.61615813e-01
   3.86176296e-02 -1.71530426e-01  1.51406042e-02  5.69751114e-02
   1.72975227e-01  2.16872275e-01  1.30355999e-01 -8.91202688e-01
  -8.21074620e-02 -1.92371234e-01 -3.79464120e-01  3.04485679e-01
   2.33446732e-01 -1.03839077e-01  1.82403773e-01 -2.49399170e-01
  -3.30799133e-01  1.58603162e-01  6.76969811e-02 -3.54568474e-02
  -1.12785129e-02 -2.18350902e-01  1.07793018e-01 -4.21446227e-02
   8.61358717e-02  7.66017854e-01  3.32715064e-01  1.44053712e-01
  -9.22197533e+00  6.61103189e-01 -3.85311484e-01 -6.20764941e-02
   1.87621973e-02  5.84257282e-02  9.81740057e-02  4.23093110e-01
  -2.84842774e-02  3.79652791e-02 -3.69039416e-01  4.61861044e-02
   2.18977600e-01  1.29915595e-01  3.08994412e-01  5.91380671e-02
   2.14178607e-01  2.30541170e-01  3.80511247e-02  6.03889935e-02
   2.08847910e-01  6.45151734e-02  7.12735429e-02 -2.00263098e-01]
 [-1.25987783e-01 -1.12038232e-01  8.42821240e-01 -8.50785673e-01
   3.22126448e-02  3.58733349e-02  2.85442919e-01  7.89064318e-02
  -2.01895642e+00 -6.53964952e-02  1.84716552e-01 -5.92942908e-02
  -1.01248100e-02  3.74182791e-01 -9.48579982e-02 -1.28530096e-02
  -9.35509682e+00 -4.80162445e-03  1.81185126e-01 -1.44076121e+00
   4.50358540e-02 -1.66737616e-01  1.06702000e-01  2.67552853e-01
   7.45433271e-01 -1.82732753e-03 -1.98760271e-01 -5.68961576e-02
   4.49522525e-01 -2.72843558e-02 -1.53553605e-01  1.29141808e+00
  -8.96690264e-02 -1.15373127e-01  1.11913241e-01 -3.83047533e+00
   5.71333587e-01 -6.09127171e-02 -2.10869640e-01  3.20600301e-01
  -6.59332797e-02 -3.13050985e-01  1.63075805e-01 -6.05795741e-01
   8.01827088e-02 -3.15961778e-01  3.68186772e-01  1.45966902e-01
  -4.60609384e-02 -7.82949757e-03  4.64803055e-02  1.41037731e-02
   1.74618125e-01  1.66802645e-01 -1.35522693e-01 -1.35596871e-01
   3.54691714e-01  1.42925948e-01  5.07974103e-02  1.59386769e-01
  -8.79070386e-02  1.11567867e+00 -3.11566517e-02  2.43879199e-01
   3.47146451e-01 -3.13194680e+00  2.54978001e-01 -5.16635060e-01
  -1.21863306e-01  1.35540580e-02 -3.27152580e-01 -2.56566548e+00
   4.26214747e-03 -1.42904505e-01 -4.17037201e+00 -3.30382377e-01
   6.62313551e-02 -1.36811897e-01 -1.08343387e+00 -9.65882912e-02
   7.13804513e-02  1.77198410e-01 -1.47856809e-02 -5.02559066e-01
  -2.81634152e-01 -3.90194263e-03 -4.65689957e-01  5.32261252e-01
   1.03799172e-01 -9.69640389e-02  2.72426575e-01 -5.28744042e-01
  -3.09891433e-01  1.03416480e-01 -9.97190922e-02 -3.42957899e-02
  -2.29058936e-02  1.06070200e-02  1.05658628e-01 -4.97288490e-03
  -2.74030752e-02  7.94889629e-01  2.24938303e-01  2.26297230e-01
  -8.52283192e+00  2.37077534e-01 -3.28137368e-01  2.32962910e-02
   1.33195799e-02  4.92724068e-02 -3.85602415e-02  1.25503793e-01
   2.82037109e-02 -7.40455315e-02 -2.55005330e-01 -7.24801958e-01
   1.97471231e-01  8.56587850e-03  1.72259599e-01 -8.02845359e-02
  -1.23332798e-01  2.67995179e-01  5.39851598e-02  5.43498024e-02
   1.75924733e-01  9.18855220e-02 -1.61291063e-02  1.10761583e-01]
 [-8.25270787e-02 -1.01944149e-01  1.16443896e+00 -6.93736434e-01
  -2.46514082e-01 -3.59999575e-02  8.10169503e-02  5.47734946e-02
  -3.31848598e+00  3.72490995e-02  3.70134383e-01  9.47753992e-03
  -1.32292379e-02  1.55028865e-01 -1.31482556e-01 -2.30732132e-02
  -4.87144804e+00  1.25180393e-01  6.09522164e-02 -7.68505394e-01
  -1.39487401e-01 -1.09510370e-01  5.08718379e-02  3.01973850e-01
   4.24692452e-01 -7.97248781e-02 -1.59964204e-01 -1.40747562e-01
   2.32392922e-01 -1.69724345e-01 -7.31095448e-02  1.48476434e+00
   8.00340399e-02 -1.46581858e-01  3.00196558e-01 -4.38844776e+00
   5.89720964e-01  2.70512193e-01 -2.23819822e-01  2.60860801e-01
  -2.60006301e-02 -3.15955997e-01  1.34930521e-01 -3.75150502e-01
   3.36478621e-01 -3.67675096e-01 -1.14992462e-01  1.12575084e-01
   2.74097711e-01 -2.13277265e-01  2.69011497e-01 -1.71921328e-01
  -1.67003069e-02  3.13455075e-01  2.53513400e-02 -6.24114573e-02
   5.41287661e-02  4.27996814e-01 -3.21460485e-01 -1.25289410e-01
  -1.68152973e-01  6.52844191e-01  1.19555153e-01 -1.40441850e-01
   3.40868115e-01 -2.77810550e+00 -5.14153391e-02 -4.96635258e-01
  -7.10935816e-02 -5.61463609e-02 -1.62942603e-01 -2.40722346e+00
   1.15739904e-01 -2.36086249e-02 -5.36864948e+00 -5.46764135e-01
   9.64561570e-03 -7.01025724e-02 -2.90935874e+00 -3.51222724e-01
   1.86410043e-02  1.17763989e-01  3.63758877e-02 -8.16228449e-01
  -2.00332984e-01  1.00574069e-01 -4.06935960e-01  4.66246039e-01
  -4.58275378e-02  1.34157836e-01  7.65793845e-02 -1.03570998e+00
  -3.00294340e-01  7.73186266e-01 -1.54596344e-01 -4.78481427e-02
  -9.98340994e-02 -3.02045513e-03 -1.66321188e-01  1.05211541e-01
  -2.02916209e-02 -3.03035468e-01  4.92004722e-01 -5.11404909e-02
  -7.16995859e+00  1.23104513e-01 -1.45115942e-01 -5.88368177e-02
  -6.73571825e-02  1.31411210e-01 -4.72591221e-02  2.08023906e-01
   7.00410381e-02 -3.66992094e-02 -4.16694582e-01 -2.29806137e+00
   1.16162032e-01  3.26059550e-01  1.09096302e-03 -1.70342088e-01
  -1.92256570e-02  3.63194942e-02 -6.20619990e-02  7.59745836e-02
   1.22191116e-01 -4.06068116e-02  4.55077849e-02  2.68561803e-02]
 [ 2.76970323e-02 -1.57879233e-01  9.34695542e-01 -1.91374525e-01
  -2.06326455e-01 -3.06565147e-02 -8.52834359e-02  9.91618559e-02
  -2.93747354e+00  6.48156181e-02  3.75594437e-01  2.92472076e-04
  -1.01431157e-03  1.21777549e-01  2.16798112e-01  7.48192966e-02
  -4.17065382e-01  2.92060226e-01  8.07797983e-02 -5.46473503e-01
  -1.59452736e-01 -1.00290500e-01 -8.25403482e-02  1.31932437e-01
   6.76239908e-01 -6.60461783e-02 -1.26820400e-01 -4.13827747e-01
   2.81317443e-01 -1.15868650e-01 -7.13713691e-02  1.30598462e+00
  -7.75705352e-02 -1.57325432e-01  8.15025568e-02 -5.38944149e+00
   5.95755160e-01  5.33306956e-01 -1.19451635e-01  2.83995029e-02
   2.88371332e-02 -3.79847199e-01  1.11815661e-01 -2.86626369e-01
   7.60286450e-02 -3.38352770e-01 -1.19373786e+00  2.83044614e-02
   5.13110995e-01 -2.42556661e-01  2.63496578e-01  1.70385778e-01
  -1.60587743e-01  5.09670556e-01  3.49883661e-02 -3.32650505e-02
   7.89815784e-02  1.14841297e-01 -4.58527446e-01 -2.09821895e-01
  -1.48923889e-01 -1.06922671e-01  2.17601448e-01 -3.37240994e-01
   4.45957243e-01 -1.58034503e+00  2.97734011e-02 -5.65798461e-01
  -1.17786281e-01 -6.13305047e-02 -3.87254894e-01 -1.91812932e+00
   7.70691186e-02 -7.26835653e-02 -6.29320717e+00 -9.51707423e-01
   5.26033342e-02 -1.06932133e-01 -3.82622886e+00 -3.72638494e-01
  -1.98507076e-03  1.84858084e-01 -8.88244063e-02 -1.71714902e+00
  -1.42011806e-01 -4.12473530e-02 -4.33219641e-01  3.76239628e-01
   9.55953971e-02  2.86631912e-01 -5.69612905e-03 -9.90093827e-01
  -3.54001194e-01 -6.35039108e-03 -1.42247632e-01  1.37098014e-01
  -1.19410262e-01  6.92318901e-02  1.60269570e-02  2.66361628e-02
  -3.60581279e-01 -1.72672617e+00 -1.44966856e-01 -7.05136657e-02
  -5.77374554e+00 -3.41502190e-01 -1.25691652e-01  1.86268240e-01
  -1.09045282e-02  2.98735946e-02 -3.01823951e-03  3.10239792e-01
   1.50793255e-03  8.47959239e-03 -4.26686347e-01 -2.87759948e+00
   1.74329340e-01 -1.69505656e-01 -8.83707106e-02 -2.03704208e-01
   2.69364327e-01 -3.85181487e-01  6.50507733e-02  8.33669007e-02
   1.95908621e-01 -1.55377060e-01 -2.94978376e-02  9.81612206e-02]
 [-8.37556720e-02 -3.10990810e-01  6.46740317e-01  1.55163007e-02
  -1.69011652e-01  1.36061832e-01 -1.06786765e-01  3.17038409e-02
  -1.56357348e+00  6.73000142e-02  1.53858751e-01 -9.02515352e-02
  -5.28886057e-02  3.76221500e-02  1.39131486e-01 -4.70819771e-02
   9.80429709e-01  1.79759175e-01  2.04330102e-01 -2.67594367e-01
  -3.40370506e-01 -1.45692706e-01 -2.40703225e-02 -1.02753729e-01
   3.12236398e-01  3.92967254e-01  2.62227887e-03 -1.78809032e-01
   2.28554100e-01 -6.57689199e-02 -1.61749065e-01  5.47938228e-01
   1.06921261e-02 -2.05313742e-01  2.52622478e-02 -6.08034611e+00
   4.63214248e-01  3.43002141e-01 -1.08273476e-01  5.82612380e-02
   4.68244366e-02 -1.05646953e-01  2.31680535e-02 -1.69873506e-01
  -4.30695713e-02 -7.05784932e-02 -1.11956573e+00  8.36832598e-02
  -4.65170652e-01 -1.89936802e-01  1.60933673e-01 -1.04760058e-01
  -5.56586459e-02  4.42598492e-01 -9.21095684e-02  1.14204586e-01
   2.22482551e-02  7.85364285e-02 -1.02131355e+00 -3.52324933e-01
  -1.97762087e-01 -3.83410752e-01  9.14707929e-02 -3.52349550e-01
   4.53052431e-01 -1.61834550e+00  6.84240535e-02 -5.54460645e-01
  -7.32214656e-03 -4.85959947e-02 -4.99338627e-01 -8.25324476e-01
   1.78188607e-02 -1.34043798e-01 -6.58520651e+00 -1.27075815e+00
   4.74124216e-02 -1.47294626e-01 -2.05873132e+00 -3.59889358e-01
   1.08858250e-01  7.86782652e-02  3.23485397e-02 -2.10327697e+00
  -1.68367121e-02 -1.84703302e-02 -3.24583024e-01  4.09844816e-01
   6.71323314e-02  2.23483369e-01  1.22264795e-01 -4.97669220e-01
  -2.03001454e-01  3.04639161e-01 -3.09607923e-01  1.24671824e-01
  -2.76414394e-01  5.82245216e-02 -1.06353119e-01  1.69957489e-01
   6.76274346e-03 -1.46228945e+00 -3.50159705e-01 -6.06593668e-01
  -2.62099648e+00 -5.99749386e-01 -1.80968434e-01  1.77344531e-01
   1.09542711e-02  6.04682826e-02  1.37986571e-01  2.81082213e-01
   5.24455607e-02  5.29778283e-03 -2.48782620e-01 -2.69599223e+00
   1.10198930e-01 -7.53869340e-02  2.46677950e-01 -3.04734051e-01
   2.95987576e-01 -6.17879391e-01 -4.33838628e-02  1.16461501e-01
   6.14588931e-02 -1.98452100e-01 -6.57092556e-02  9.26389247e-02]
 [-1.02999374e-01 -2.23720029e-01  5.62342286e-01 -3.17588598e-02
  -1.33548602e-01  1.21450253e-01 -4.67573494e-01  6.97970241e-02
  -1.38342786e+00  2.37236917e-02  1.25180587e-01 -4.59808931e-02
  -4.50613022e-01 -2.14487940e-01  1.99559569e-01 -1.46097867e-02
   9.34405386e-01  4.84053306e-02  1.51834905e-01 -8.08832645e-02
  -2.76493520e-01  2.74707359e-04  6.27189949e-02  1.78337246e-02
   2.62526840e-01  6.64055586e-01 -2.58011632e-02 -6.92369938e-02
   3.23492914e-01 -2.27690876e-01 -2.04236582e-01  2.05441922e-01
  -2.60336667e-01 -1.83887631e-01  2.11866245e-01 -6.85477304e+00
   4.41887528e-01  1.26370981e-01 -1.58281192e-01  1.28605768e-01
  -8.17640796e-02  3.85170728e-02  1.10060014e-01 -2.11342201e-01
  -4.09682482e-01  1.66893616e-01 -3.75851899e-01  1.96699843e-01
  -1.60186958e+00  5.21919653e-02  2.87723750e-01 -2.73526162e-02
  -4.27545011e-01  5.44961870e-01  7.00555891e-02 -3.01204436e-02
   3.38702067e-03  2.82885045e-01 -1.55733407e+00 -4.51962799e-02
  -7.60898590e-02 -6.34781539e-01 -2.02535227e-01 -4.14641947e-01
   5.11255026e-01 -2.11566639e+00 -1.48643583e-01 -7.03206778e-01
   1.31495344e-02  1.95306819e-02 -4.12444621e-01 -3.86574447e-01
   4.14590798e-02 -7.62016326e-02 -5.76725912e+00 -2.81580877e+00
  -3.66604663e-02 -7.53130689e-02 -4.08761650e-01 -2.08692923e-01
  -4.09569219e-02  1.90631431e-02 -3.33371386e-02 -2.30105305e+00
   1.46197975e-01  1.52501464e-03 -5.29643595e-01  1.69233501e-01
  -1.41821234e-02  1.39299676e-01 -1.01181842e-01 -1.84806153e-01
  -7.79247209e-02 -5.49194932e-01  9.80507061e-02  1.11819856e-01
  -1.99977040e-01  8.86611566e-02  1.31082997e-01  1.53263003e-01
   7.25360513e-02  2.56389916e-01 -3.93487543e-01 -9.22976315e-01
  -9.55457270e-01 -3.85237604e-01 -1.67685121e-01  1.73482895e-01
  -1.78097691e-02 -1.49524629e-01  1.04986802e-01  8.11155289e-02
   1.39774680e-02  1.88341215e-02 -2.41534501e-01 -2.18698120e+00
  -3.49799804e-02 -2.89369196e-01  4.11771089e-02 -2.42000237e-01
   1.55234858e-01 -4.13520247e-01 -8.78752992e-02  1.02714047e-01
   2.26961523e-02 -1.50174737e-01 -2.17582837e-01 -3.70578282e-02]
 [-1.16339467e-01 -1.67936772e-01  7.48039246e-01  1.10186949e-01
  -3.40459421e-02  7.61893839e-02 -1.31533861e+00 -2.04714108e-02
  -3.58411717e+00 -4.41027863e-04  3.27323288e-01 -6.91121966e-02
  -5.58450818e-01  3.51498835e-02  7.04798028e-02 -8.95336270e-02
   6.53087437e-01 -3.34569693e-01  2.12827131e-01  3.12750004e-02
  -3.16570908e-01  4.34441157e-02  1.56987458e-01  2.38681793e-01
   1.75001100e-01  5.34661531e-01  6.61135977e-03 -1.01173900e-01
   1.76527485e-01 -1.32303819e-01 -9.69355274e-03 -2.95665085e-01
  -9.30495039e-02 -7.21790865e-02  2.38824561e-01 -7.24015188e+00
   2.24225774e-01  3.90423447e-01 -2.76543796e-01 -8.91281962e-02
   3.92371006e-02 -1.63598180e-01  1.47772238e-01  8.62183124e-02
  -7.64713138e-02  2.34709159e-02 -5.88424429e-02  1.19402073e-01
  -5.16806126e-01  2.15467196e-02  4.28822972e-02 -1.27837300e-01
  -3.61439973e-01  3.14914137e-01  1.41679466e-01 -7.96024278e-02
  -1.84564814e-01  2.36793727e-01 -2.05195212e+00  5.66546246e-02
  -6.23212680e-02 -5.64137757e-01 -1.85521901e-01 -4.67001915e-01
  -1.89722553e-01 -1.49176383e+00 -8.32954347e-02 -6.47908509e-01
  -9.01257917e-02 -1.93172880e-02 -1.42015800e-01 -5.58147371e-01
  -1.17714249e-01  7.20364973e-02 -3.40807128e+00 -3.50212789e+00
  -2.62357611e-02  4.66904826e-02 -4.61981267e-01 -3.97958845e-01
  -7.70078152e-02 -6.83467463e-02 -5.16907349e-02 -2.78097725e+00
   1.99399702e-02  1.38309211e-01 -4.97854054e-02  2.99174517e-01
   2.30918489e-02  1.28894225e-01 -1.74411722e-02 -2.49761730e-01
   1.46985780e-02 -1.02964187e+00  2.48224825e-01 -1.74675733e-02
  -2.38259822e-01 -1.18003234e-01 -1.15762264e-01  2.57417262e-01
  -1.71790943e-02  3.00818324e-01 -2.23344386e-01 -2.25256968e+00
   1.28024384e-01  3.94848645e-01 -1.42880872e-01  2.26903781e-01
   3.11506856e-02 -3.30239296e-01 -5.81843965e-03 -1.02086566e-01
  -1.85039937e-01 -1.19888950e-02 -1.12708665e-01 -2.16474724e+00
  -6.58503547e-02  6.88441377e-03  2.57677406e-01 -2.29118869e-01
   2.54288197e-01  1.35666549e-01 -2.73198634e-01 -1.37522742e-01
   2.21044451e-01 -1.01574190e-01 -1.32764786e-01  1.02067061e-01]
 [-4.46641035e-02 -8.13268200e-02  4.93495941e-01  1.81587532e-01
   8.37477222e-02  2.30013411e-02 -1.70575166e+00  4.41875048e-02
  -6.04685020e+00  8.71085823e-02  2.50306189e-01 -5.72683103e-02
  -2.81282008e-01 -3.11464798e-02  1.35264352e-01  6.02830434e-03
   5.20023644e-01 -5.84402502e-01  2.88558215e-01  9.34738070e-02
  -2.49125600e-01 -3.89394686e-02  4.43268428e-03  3.97186577e-01
   3.66101801e-01  4.22471434e-01 -7.12745497e-03 -6.81948215e-02
   2.54801899e-01 -1.32546593e-02 -1.08908400e-01 -8.22006106e-01
  -1.93995219e-02  1.68336913e-01 -1.88219607e-01 -6.96988583e+00
   2.95215368e-01  2.65594989e-01 -2.09769428e-01 -9.50620919e-02
  -3.34717929e-02 -1.39870524e-01  3.33523154e-02  1.70343563e-01
   1.63497373e-01 -1.02818966e-01  7.44701549e-02  6.05855919e-02
  -5.04714429e-01  6.74297363e-02  9.48702469e-02  2.78199725e-02
  -1.65569529e-01  3.36039931e-01  2.63742328e-01 -7.71821216e-02
  -3.37442905e-01  1.55628189e-01 -2.90755486e+00 -1.21950418e-01
   4.44593206e-02 -5.49195290e-01  1.89109780e-02 -3.43072593e-01
  -7.95560479e-01 -3.27319086e-01 -7.41992891e-02 -1.78496689e-01
   3.21757160e-02 -7.26065487e-02 -2.48991936e-01 -6.55808225e-02
   2.13957261e-02  1.14485770e-01 -2.33896995e+00 -1.75597906e+00
  -4.01298665e-02 -8.22810754e-02 -2.87532896e-01 -2.86749005e-01
   1.88563466e-02 -9.63331908e-02  6.94896560e-03 -2.04536676e+00
  -2.46165064e-03  1.86285446e-03 -1.58261374e-01  2.09793016e-01
  -3.33025530e-02  1.63627416e-01 -3.62398773e-01 -9.60966721e-02
  -1.42838620e-02 -7.01861441e-01  1.25351563e-01  3.02596167e-02
  -1.49947241e-01  1.66518975e-03 -1.50061294e-01  2.29571328e-01
  -2.29556292e-01  4.84395176e-01  8.53599235e-03 -3.81662512e+00
   5.74630015e-02  9.11089242e-01 -9.58213136e-02  1.43060133e-01
   5.56161515e-02 -2.13910267e-01 -1.63873304e-02  9.14075673e-02
  -1.92402050e-01  1.72237344e-02 -5.70074357e-02 -2.20300579e+00
  -3.36296186e-02 -3.47361177e-01 -1.00413494e-01 -3.22279856e-02
   2.21176118e-01  6.12156272e-01 -1.30725026e-01 -2.57705063e-01
   1.78474456e-01  1.52762488e-01 -1.23343706e-01  7.61739835e-02]
 [-9.94519219e-02 -3.91904674e-02 -2.99275875e-01  2.08305269e-01
  -1.35335490e-01 -1.29668545e-02 -1.64276564e+00 -2.09212042e-02
  -7.98744535e+00  1.53680388e-02  1.47646606e-01  1.08070605e-01
  -6.93433344e-01 -4.46875989e-02  2.02754393e-01 -6.78897426e-02
   5.03171921e-01 -8.16504300e-01  1.13158971e-01  2.09495515e-01
  -8.27991217e-02  1.46497801e-01  6.40101284e-02 -7.91208223e-02
   4.71498370e-01  1.51889995e-01 -6.78332448e-02 -1.35095850e-01
  -1.28541633e-01 -3.37209888e-02 -9.89790186e-02 -2.02796802e-01
   6.28271624e-02  1.78375840e-01 -1.78180337e-01 -7.33471966e+00
   3.03743899e-01  4.67002481e-01 -1.31904826e-01 -2.61494040e-01
  -1.11683598e-02 -1.40603617e-01  1.01179764e-01 -5.56158870e-02
  -3.22448127e-02  2.27230325e-01  1.63511783e-01 -1.25605807e-01
  -9.03495908e-01 -9.64386389e-02  4.87045608e-02  1.64237708e-01
  -2.88197935e-01  3.23993206e-01  3.40106413e-02 -4.28947620e-02
  -3.61353159e-01 -2.98129655e-02 -2.51708698e+00  9.76852253e-02
   1.79669499e-01 -2.24235743e-01 -3.33538614e-02 -3.16783875e-01
  -7.37635374e-01 -1.18380167e-01 -5.99493980e-02  2.72692204e-01
  -1.87672209e-02  3.85287777e-02 -3.73511724e-02 -8.45061094e-02
  -3.75497602e-02  1.77982748e-01 -1.53581870e+00 -5.96086383e-01
  -2.99714599e-02  4.55617085e-02 -1.40233740e-01 -6.92182630e-02
  -5.02054766e-02 -1.58895344e-01  2.22297356e-01 -5.25634587e-01
  -2.68522371e-02  6.73734071e-03 -1.78088963e-01  2.48069331e-01
   1.80635750e-01  9.68832374e-02 -7.79756308e-02 -3.72558296e-01
  -1.20435230e-01 -1.05468595e+00 -1.32652134e-01  3.56717259e-02
   5.52003533e-02  1.35616567e-02 -2.08383918e-01  5.21647707e-02
  -1.69232398e-01  1.10895622e+00 -1.89882964e-02 -4.61902952e+00
  -9.29466933e-02  4.25520450e-01 -1.05213381e-01 -1.07986636e-01
  -6.23635240e-02 -3.24070334e-01  1.13361925e-02  2.47288629e-01
  -1.99507847e-01 -4.51575443e-02 -7.46934712e-02 -1.45670164e+00
   6.82881847e-02 -4.16344464e-01 -1.71695292e-01 -8.71796906e-02
   2.83025473e-01  6.28952742e-01  1.69895291e-01 -6.13427497e-02
   7.00109005e-02  1.72630087e-01 -2.08475336e-01  9.59796757e-02]
 [ 4.45124432e-02 -1.67990729e-01 -4.40776706e-01 -8.08815509e-02
   1.27640009e-01 -1.45104043e-02 -1.82335472e+00  2.62958300e-03
  -9.89259052e+00  2.44040135e-02  6.85973018e-02  1.51968012e-02
  -1.76470959e+00  8.78624395e-02  1.94466010e-01 -1.00412220e-01
   2.45639786e-01 -2.54932332e+00  1.70055941e-01  1.68955382e-02
   9.22195334e-03  1.39389992e-01  1.62164360e-01 -1.28913805e-01
   5.30220091e-01  2.40330458e-01  2.43763123e-02 -3.17137465e-02
  -6.17970586e-01 -6.03518747e-02 -1.74200237e-01  4.52252924e-01
  -1.06409062e-02  7.62613267e-02 -1.46130607e-01 -6.59475183e+00
   1.04948208e-01  1.64170608e-01 -2.60444190e-02 -1.26897097e-01
   2.98737902e-02 -2.50841469e-01  5.18458672e-02  1.04584992e-01
  -1.96146831e-01 -2.25774437e-01  3.31558019e-01 -2.49085557e-02
  -4.70986813e-01 -9.72784832e-02  1.19276181e-01  1.74973067e-02
  -3.14715624e-01  3.49841267e-01  4.88271862e-02  4.46772538e-02
  -4.03775990e-01  1.76805839e-01 -2.22579503e+00 -1.99901327e-01
   1.97272748e-01 -3.00743338e-02 -1.30621225e-01 -2.05839768e-01
   3.14372033e-01 -9.80471075e-02  4.08688188e-02  3.57745051e-01
  -7.44144022e-02 -1.35037722e-02  9.44879055e-02 -3.61025445e-02
   3.62345129e-02 -4.41613421e-02 -1.26374197e+00 -2.53059745e-01
   3.81316729e-02 -1.81447640e-02  1.13637783e-01 -2.23341491e-02
  -6.91415593e-02 -6.44389018e-02  1.18944623e-01 -8.36200118e-02
   2.60775760e-02  1.87639624e-01 -2.90503297e-02  1.45233750e-01
   9.72598791e-02 -3.69672775e-02 -2.59765476e-01 -6.73251092e-01
  -2.55247727e-02 -1.32137179e+00 -9.64336842e-02  3.83908637e-02
   1.85380671e-02 -1.07215218e-01 -2.06035733e-01 -7.87101761e-02
   4.62704152e-01  4.56376702e-01 -8.51021260e-02 -4.25711966e+00
   8.37249085e-02  1.82914957e-01 -6.50856942e-02 -2.01028466e-01
   2.18449323e-03 -1.13231927e-01 -5.84268793e-02 -1.72066450e-01
  -1.80699676e-01 -8.21055174e-02  1.17621101e-01 -9.58149135e-01
  -4.24622037e-02 -4.97688092e-02 -2.49864995e-01 -1.48143828e-01
  -1.19687691e-02  4.53974575e-01  1.05509773e-01  1.00991473e-01
  -2.65347436e-02  1.32166922e-01 -7.72936419e-02 -2.90857721e-02]
 [-3.14003043e-02 -4.13719565e-02 -1.05224299e+00 -3.63245755e-01
   8.87178443e-03  4.96290065e-03 -1.29396725e+00  5.23343198e-02
  -1.01229525e+01 -6.71587288e-02  8.21475014e-02 -5.32796681e-02
  -2.45082116e+00  3.68626341e-02 -1.14571057e-01 -1.15135901e-01
   1.65660679e-01 -3.53768110e+00  3.32707390e-02  5.07857800e-02
   9.24006924e-02  1.53066859e-01  4.76782501e-01  4.96639358e-03
   3.11404079e-01  4.41168875e-01 -2.76160091e-02 -1.67126253e-01
  -1.96045411e+00  1.26364678e-02 -2.90929019e-01  6.77752972e-01
   3.87265570e-02 -4.74873856e-02 -1.05836719e-01 -6.35540962e+00
  -8.51463079e-02 -1.17590356e+00  2.36809589e-02  3.66368070e-02
   1.11107454e-02 -3.30972612e-01  1.33174121e-01  1.93756241e-02
   1.61831990e-01 -3.96229863e-01  2.38153338e-01 -1.87421203e-01
  -1.81254730e-01 -1.21549726e-01 -4.27534096e-02  4.01618443e-02
  -6.58692271e-02  7.86754489e-02  4.36472856e-02  1.55361444e-02
  -2.32642487e-01 -1.01761974e-01 -2.24723196e+00 -2.46652141e-01
   8.98621529e-02  3.46835889e-02 -4.52249944e-02 -1.81978524e-01
  -2.19014972e-01 -1.18114091e-01  7.03403950e-02  5.11261702e-01
   6.52943552e-02 -4.87321755e-03 -8.52760822e-02  4.42092270e-02
  -1.23377424e-03 -2.99152397e-02 -5.34394681e-01 -1.44681051e-01
  -1.05308607e-01  5.82462410e-03  1.89699247e-01 -8.72278437e-02
   2.90800452e-01  1.76411182e-01  2.48057678e-01 -7.60620413e-03
   1.35239556e-01  1.37782022e-02  1.30993962e-01  4.92443591e-02
   1.40880063e-01 -2.37496719e-01 -4.01740134e-01 -4.49761868e-01
  -2.05665410e-01 -1.44369757e+00 -1.03959382e-01 -3.76492552e-02
  -8.06309730e-02 -1.34230912e-01  1.30593553e-01 -3.16012919e-01
  -1.37096596e+00  2.35861540e-01 -1.78754047e-01 -3.74542642e+00
   1.23611629e-01 -4.17727120e-02 -7.96578899e-02 -4.03560773e-02
  -6.74861372e-02 -9.48267132e-02  1.31764427e-01 -4.31812197e-01
   5.18823005e-02  1.62479598e-02 -3.65641192e-02 -1.17374170e+00
   2.88463682e-02  2.78908134e-01 -2.55237162e-01  6.57071769e-02
  -1.83349758e-01  6.21037424e-01 -6.38186187e-02  1.47522584e-01
  -9.51571018e-02  5.55774532e-02 -7.76616558e-02 -8.19511637e-02]
 [ 9.91496518e-02 -1.63896158e-01 -7.13745832e-01 -4.60738987e-01
  -1.35475948e-01 -6.30679727e-03 -1.37895906e+00 -1.33474529e-01
  -1.00013065e+01 -7.21521974e-02  1.59408972e-01 -3.22917514e-02
  -3.14589953e+00 -5.44570833e-02 -8.29075202e-02 -9.41007212e-02
  -6.96643740e-02 -3.42818999e+00  1.34668395e-01  7.65189677e-02
  -3.67818549e-02  8.68489370e-02  1.37906656e-01 -3.25422245e-03
   2.63796270e-01  4.78357673e-01 -5.40610142e-02 -1.68329656e-01
  -2.96302342e+00  3.11468337e-02 -3.56012702e-01  2.95297325e-01
   9.50004384e-02  5.81212491e-02  1.68753043e-01 -5.60581255e+00
  -6.93355650e-02 -3.61787581e+00 -6.54824153e-02 -1.33230373e-01
  -1.56178297e-02 -3.07551175e-01 -7.42546320e-02  2.06288882e-02
   1.60122186e-01 -6.97707459e-02  1.51106000e-01 -1.62364557e-01
  -6.85395241e-01 -1.40333340e-01  1.59943812e-02  4.05763090e-02
   5.16783781e-02  2.32904539e-01 -1.38571531e-01  2.64789537e-02
  -1.62654787e-01 -3.46434623e-01 -1.72899973e+00 -3.81811000e-02
  -1.00699430e-02 -3.55987363e-02 -4.00218405e-02 -2.06002444e-01
  -7.33304560e-01  2.08175965e-02  4.69991677e-02  3.10651004e-01
  -1.13576027e-02  2.76190182e-03 -1.76761687e-01  2.05917388e-01
   5.20396121e-02 -4.17848304e-02 -2.57782370e-01  5.05993217e-02
   3.44287232e-02 -3.32226232e-02  1.19262449e-01 -1.36775255e-01
   1.97232559e-01  2.24094555e-01  2.95162559e-01  1.84763581e-01
  -2.42663458e-01  4.45560962e-02  1.04436144e-01  1.56814843e-01
   2.87939291e-02 -9.18346345e-02 -2.56753743e-01 -7.34216571e-01
  -1.67117998e-01 -1.48459458e+00 -2.25204825e-01 -1.25342682e-01
  -2.61456013e-01  6.87053278e-02  1.11731738e-01 -2.05899924e-01
  -2.43255043e+00 -6.21465743e-01 -1.60143733e-01 -1.97578037e+00
  -2.05078106e-02 -1.02781333e-01 -2.02111512e-01 -1.21043259e-02
   5.08048162e-02 -1.68470386e-02  1.03109203e-01 -4.96345758e-01
  -4.96817082e-02 -1.07179306e-01 -6.87582493e-02 -1.55778933e+00
  -1.39823511e-01  2.80789405e-01 -1.11347765e-01  2.73754209e-01
   2.60247458e-02  7.45163560e-01  1.42630100e-01 -1.88412890e-02
  -6.08753972e-02 -1.09358355e-01 -1.59634829e-01 -1.37250215e-01]
 [-1.37781218e-01 -1.60198018e-01 -2.45380118e-01 -2.63290197e-01
  -3.37966420e-02 -6.50560930e-02 -6.40714109e-01 -4.08610934e-03
  -9.15474796e+00  2.98821703e-02  3.42324898e-02  1.50855288e-01
  -2.22289705e+00 -6.00878038e-02 -1.04802474e-01 -7.91720971e-02
  -1.13381147e-02 -1.16661763e+00  8.61768946e-02  1.20573593e-02
  -4.66619544e-02  3.46267447e-02 -1.79787874e-01 -7.67792761e-02
   8.59421268e-02  3.85598004e-01 -1.72705993e-01 -1.13805711e-01
  -1.53187585e+00  2.97800563e-02 -1.82224467e-01  4.52171743e-01
   1.57993138e-02  4.06760931e-01 -5.18583916e-02 -5.01757574e+00
  -1.41473114e-02 -4.15693474e+00 -2.51375109e-01 -4.24199775e-02
  -2.61660144e-02 -3.50039482e-01  2.40162294e-02  8.25426653e-02
  -1.41379461e-01  1.82652116e-01 -5.48759289e-03 -2.95825928e-01
  -1.33904016e+00 -2.63622224e-01  9.98815224e-02 -1.40001655e-01
   1.78208873e-01  2.32613772e-01 -1.02341831e-01  1.54461309e-01
  -3.50283310e-02 -3.06570292e-01 -1.97911334e+00 -2.03781072e-02
   8.76888353e-03 -8.75084922e-02  1.03279695e-01 -4.21561375e-02
  -8.18992853e-01 -1.80908114e-01 -1.09727040e-01  5.69744594e-02
  -3.48355360e-02 -3.76926139e-02 -2.35026687e-01  8.68251324e-02
   1.43281864e-02 -6.63401037e-02 -2.15103939e-01 -3.34083429e-03
  -2.86745224e-02 -3.13190073e-02 -8.16654135e-03 -2.92227775e-01
   1.09902248e-01  1.78668067e-01 -1.32676736e-02  2.25119784e-01
  -3.60488653e-01 -3.75708975e-02  1.40070349e-01  2.02546120e-01
   1.07752852e-01 -4.89156507e-02  5.58347106e-02 -5.96452355e-01
  -2.57491171e-01 -1.81068480e+00 -1.17834754e-01 -3.60346213e-02
  -2.88218945e-01 -9.38121527e-02 -9.84310359e-02 -5.94516173e-02
  -3.28865290e+00 -1.47130477e+00  8.34484771e-02 -3.62197548e-01
   2.94507332e-02 -5.70890486e-01 -2.56759748e-02  5.01572937e-02
   5.83958142e-02  3.79505903e-02  5.57084382e-03 -6.68825448e-01
  -1.41190272e-02  3.50371003e-02 -1.26074359e-01 -1.63110173e+00
  -2.57577896e-01  9.57467407e-02 -2.58805186e-01  9.60784853e-02
  -2.41019428e-01  5.19944131e-01  1.33171409e-01 -8.95317271e-02
  -2.22874448e-01 -4.96528000e-02 -1.48142010e-01  1.61639731e-02]
 [-4.79243249e-02 -2.33695507e-01  2.12822556e-01  1.77187711e-01
   1.97079917e-03 -3.09773922e-01 -3.63514036e-01 -8.02060124e-03
  -8.47914124e+00  4.29975316e-02  9.47592184e-02 -1.74702965e-02
  -1.33753550e+00 -2.49954052e-02 -1.32268727e-01 -8.48517418e-02
   1.21179871e-01 -5.36332428e-01 -6.23448826e-02 -6.40934482e-02
  -3.09778124e-01  6.07522912e-02 -5.00832975e-01 -1.39043257e-01
  -1.40451998e-01  2.10623249e-01 -9.28239971e-02 -9.22378004e-02
  -2.07095280e-01  5.59660941e-02 -1.78478897e-01 -4.70524013e-01
   8.58755931e-02  7.15391040e-01 -2.18528241e-01 -4.10613823e+00
   1.37183383e-01 -1.89527273e+00 -1.79098576e-01 -7.83797428e-02
   9.17510502e-03 -2.81994671e-01  1.23802461e-02  5.90515621e-02
  -8.07828754e-02 -5.32067986e-03  1.10282846e-01 -9.25561711e-02
  -2.06899381e+00 -6.16073534e-02 -6.73315898e-02 -2.29257956e-01
   1.88673332e-01  3.30070257e-01  2.04549618e-02 -5.07869385e-02
  -1.07501179e-01  1.87028408e-01 -2.05846620e+00 -2.28314266e-01
  -5.73400483e-02 -4.37385589e-01  1.60712242e-01  5.42260595e-02
  -1.07873595e+00 -1.60290718e-01 -1.23744175e-01  2.28897303e-01
  -4.25252527e-01 -6.37905598e-02 -2.81216770e-01  1.32572398e-01
  -1.63261294e-01 -7.55149648e-02 -3.68921459e-01  1.06163345e-01
  -1.89116020e-02 -1.06532000e-01  6.40846193e-02 -3.40877801e-01
   2.36591831e-01  3.43271196e-02 -1.28069073e-01 -1.70927167e-01
  -3.84536296e-01 -9.00684670e-02  7.12242424e-02  1.18662886e-01
   3.80070470e-02 -2.03304157e-01  8.70584920e-02 -4.35636312e-01
  -1.39048830e-01 -1.65526521e+00 -2.47976780e-01 -1.11969762e-01
  -1.51334822e-01 -2.01706707e-01 -7.56334439e-02 -1.19522372e-02
  -5.28883839e+00  1.86790809e-01  8.03398713e-02  3.01467866e-01
   6.58451393e-02 -5.58473408e-01 -2.31021158e-02  1.54296175e-01
   2.42312904e-02 -1.01303823e-01 -8.62130448e-02 -1.40171885e+00
  -4.77314368e-02 -4.23338003e-02 -1.43286899e-01 -8.74079943e-01
  -3.99795026e-01  1.40728250e-01 -2.91544914e-01  3.79796997e-02
   2.77930915e-01  1.95508242e-01 -2.58035213e-02 -1.28261521e-01
  -2.77114101e-02 -5.06341875e-01 -7.70539191e-05 -2.74893194e-02]
 [-1.01924893e-02 -1.04794919e-01  3.47882807e-01 -1.66185200e-01
  -1.41253084e-01 -2.91622996e-01 -3.61115098e-01  3.95769812e-02
  -8.56026554e+00 -1.27129424e-02  1.23076126e-01 -1.93267465e-01
  -8.32552075e-01 -2.72355974e-02 -3.62043642e-02 -4.33112727e-03
  -4.71706726e-02  3.25060964e-01 -1.16008885e-01 -9.19129476e-02
  -2.09593363e-02  2.80297190e-01 -1.05332518e+00 -6.26665950e-02
  -1.45899281e-01  4.33515429e-01 -1.24333473e-02 -3.29215378e-02
   4.01350021e-01 -1.20673999e-01 -2.77254522e-01 -1.19084430e+00
   7.35222846e-02  5.56002617e-01 -2.41539255e-01 -2.40915728e+00
   2.96027035e-01 -3.80065054e-01 -1.26093820e-01 -1.40078604e-01
   1.48782542e-03 -8.12297389e-02  3.70189667e-01 -3.70966643e-02
  -5.51214181e-02  2.56984204e-01  1.33812055e-01  1.82491705e-01
  -1.47780800e+00 -2.67301232e-01  2.58358177e-02 -1.36267394e-01
   4.42770928e-01  4.37476873e-01 -2.20220566e-01 -2.23420992e-01
   1.18589915e-01  8.71009976e-02 -2.03525615e+00 -1.72171712e-01
  -3.95239294e-02 -4.82111484e-01  2.62462534e-02  1.28909707e-01
  -6.89546049e-01  2.87737548e-01 -9.37144011e-02  1.16944090e-02
  -6.69761896e-01 -5.02182357e-02 -1.43900961e-01  2.52056539e-01
   4.28424925e-02 -6.49061799e-02 -1.94546163e-01  2.72206534e-02
  -7.22930506e-02 -1.06086545e-01  6.59964979e-02 -3.82809252e-01
   5.57740033e-02  2.56798983e-01 -1.40739188e-01 -6.44143447e-02
  -4.48866874e-01  1.25654891e-01 -2.00307414e-01  1.18134685e-01
   1.31351966e-02 -4.88952734e-02  8.65565166e-02 -5.07077165e-02
  -1.78846821e-01 -1.57981169e+00 -4.94487792e-01  6.27484918e-02
  -2.29826823e-01 -1.74765050e-01  1.72391664e-02  9.40372646e-02
  -5.56869650e+00  8.22334111e-01  2.17016444e-01  6.33791685e-02
   7.25019053e-02 -8.66516605e-02  7.30809644e-02 -1.00484109e-02
  -2.28014644e-02 -1.63966324e-03  6.37988597e-02 -2.38931751e+00
  -5.44554368e-02  3.23742069e-02 -1.87924057e-02 -3.10901493e-01
  -4.66218591e-01 -7.19647825e-01  4.51732650e-02  3.51426564e-02
   2.34563220e-02  2.84098908e-02 -1.63359284e-01  2.27842301e-01
   1.54377043e-01 -7.38559484e-01 -8.41410384e-02 -1.36355206e-01]
 [ 2.57489271e-02 -7.62074366e-02  1.33129075e-01 -1.48373902e-01
  -1.28039077e-01 -1.17716990e-01 -2.38304600e-01  1.01842443e-02
  -8.50244331e+00 -3.61392647e-02  9.49820876e-02  1.50240690e-01
  -6.93374798e-02  5.24400501e-03 -7.15959445e-02  5.43960147e-02
   4.65508029e-02  5.39509416e-01 -1.71380296e-01 -1.26442999e-01
  -2.08626702e-01 -4.54223268e-02 -2.06590509e+00  1.14597246e-01
  -7.13706343e-03  2.21385866e-01  6.76808357e-02 -1.20812312e-01
   3.57087076e-01 -8.07005353e-03 -2.76120216e-01  5.07855527e-02
   2.09480431e-02 -3.85025442e-01 -2.69024462e-01 -2.02175522e+00
   4.42335278e-01  1.99267790e-01 -1.30900875e-01 -1.87471230e-02
  -7.19525963e-02 -2.35959426e-01  2.54707754e-01  1.04094297e-01
  -7.84300938e-02 -4.23993636e-03  9.47033241e-02  1.29438952e-01
  -3.58278930e-01 -1.80694014e-01 -1.90038890e-01 -1.38232678e-01
   2.21890435e-01  3.98216009e-01 -4.16407794e-01 -5.56541085e-01
   1.78026259e-01  1.07678594e-02 -1.47884107e+00 -1.59883648e-01
  -2.26620995e-02 -1.66089189e+00 -9.28456932e-02 -4.09954339e-02
  -6.00942492e-01  2.26296455e-01 -7.60445595e-02  1.17657252e-01
  -4.57198590e-01 -1.49796926e-03 -1.10974483e-01  7.52948970e-02
   6.09488413e-02  1.61429882e-01 -1.32034585e-01  8.82745609e-02
  -1.07794188e-01 -1.10053569e-01  2.61915885e-02 -2.12297454e-01
  -4.82555330e-02  4.26380068e-01  2.97269940e-01 -7.44613335e-02
  -1.11637495e-01  5.97688928e-02 -5.66639900e-02  1.13685824e-01
   5.12747653e-02 -9.62871611e-02  6.18076650e-03  9.57660675e-02
  -2.27946982e-01 -1.46988106e+00 -3.53325516e-01  1.45121768e-01
  -3.08465004e-01 -5.03469855e-02 -7.22973645e-02  1.75519623e-02
  -4.98450184e+00  9.80773926e-01  8.68367553e-02  3.17047052e-02
   1.83050722e-01  1.54900834e-01 -2.66652167e-01 -1.41221210e-01
   6.40923623e-03 -4.13817577e-02  9.12911519e-02 -2.78461003e+00
  -2.65474051e-01 -2.96426588e-03 -1.17584076e-02 -8.69402736e-02
  -3.62945646e-01 -1.37155521e+00  1.02070151e-02  6.23375811e-02
  -1.31560177e-01  2.72968318e-02 -2.09649250e-01  1.06863149e-01
   3.79461125e-02 -2.34521294e+00  3.55338193e-02 -1.16170965e-01]
 [-9.57554355e-02  1.47641916e-02  3.16769212e-01 -2.60933965e-01
  -9.58781131e-03 -2.30078064e-02 -1.53032586e-01  4.04071882e-02
  -8.38471794e+00 -1.32466350e-02  3.99716608e-02  1.65620193e-01
   3.89390439e-01 -7.86686167e-02 -1.09577619e-01 -1.71247255e-02
   1.00576408e-01  7.51550555e-01 -1.12306364e-02 -5.47447987e-02
  -1.84885234e-01  1.10678919e-01 -3.34835839e+00 -6.71553835e-02
  -3.78747545e-02 -1.91800013e-01  2.01003160e-03 -2.01429963e-01
   4.50098544e-01  1.26354275e-02 -2.54991889e-01  3.10629845e-01
   9.63017941e-02 -2.57353139e+00 -3.95167693e-02 -1.06330097e+00
